svm_type c_svc
kernel_type rbf
gamma 0.00195312
nr_class 23
total_sv 563
rho -0.0429319 -0.068383 0.177353 0.465866 -0.0659818 0.0982369 -0.292315 -0.394624 -0.307212 0.100161 -0.230883 0.00611634 -0.015838 0.06771 -0.0456493 -0.216893 -0.0798884 -0.0253877 0.370502 0.160397 0.192929 0.0490583 0.141983 0.115439 0.265261 -0.0581849 0.199369 -0.0200559 -0.0538716 0.00052592 0.00695493 0.0254365 -0.0390636 0.459705 0.0566033 -0.0716706 -0.0882536 0.0216187 0.00188138 0.304049 0.0883961 0.131265 0.106694 0.158128 0.133349 0.0898473 0.220211 0.0524985 -0.0112778 0.0402435 0.111826 0.10625 0.115375 -0.0142776 0.0934691 0.183978 -0.024387 0.0219667 0.00717072 0.348734 0.103072 0.213522 0.24696 0.210867 -0.0970994 0.327712 -0.0481367 -0.67121 -0.213562 -0.471214 -0.657853 -0.28201 -0.14247 -0.299503 -0.0066387 -0.293001 -0.268561 -0.182757 0.00972643 -0.0316467 0.0914579 -0.0481759 -0.36145 -0.13155 -0.450955 -1.2899 -0.757363 -0.256001 0.0546765 -0.392934 -0.141311 0.541423 -0.0929385 -0.319694 -0.878326 0.196286 0.0536399 -0.0540966 0.0412964 -0.0363934 0.536915 0.0493423 0.0150446 0.255583 0.0775588 -0.0540655 0.108338 0.00267291 0.133753 0.220991 -0.0405054 -0.370735 -0.0204568 0.892099 0.121363 0.108586 0.232342 -0.245956 -0.56559 0.165105 -0.146961 -0.378764 -0.399011 -0.23128 -0.0839724 -0.087397 -0.165378 -0.611574 -0.673569 -0.0205556 -0.0336083 -0.0225097 -0.149717 -0.33183 0.123522 -0.224202 0.0625979 -0.198133 0.0175673 0.317891 -0.0316297 -0.0190824 -0.198262 0.105818 0.440836 0.00378079 0.118532 0.160801 0.183421 0.369087 0.706619 0.709173 0.0915819 0.335993 -0.015224 0.216624 -0.188347 0.258191 0.387714 0.195174 0.257075 0.241548 -0.144289 -0.297022 0.048508 0.0189905 0.29336 0.0851894 0.0510877 -0.133763 0.0411049 0.0641265 0.118681 0.198604 0.116399 -0.175458 -0.010552 -0.00343774 0.572086 -0.0561737 -0.0172189 -0.253298 0.0227624 0.493159 0.100369 0.130789 0.0528567 0.238205 0.0366226 0.560369 0.0344304 -0.00674715 -0.126583 0.125699 0.364003 0.17672 0.182778 0.249606 -0.128573 0.0929768 -0.14382 -0.180096 -0.253818 0.17729 0.168867 0.132133 0.0408752 0.0259012 0.0906688 -0.0199463 -0.0672005 -0.0555278 -0.0901145 0.176871 0.123844 0.123689 0.224372 0.000731811 -0.281337 -0.119134 0.0938747 0.156455 -0.00252014 0.143139 0.0592272 -0.0881345 -0.0450313 -0.0314657 0.12275 0.00916712 -0.0906889 0.253218 -0.0767335 -0.0512089 0.181743 0.218526 0.0966806 0.322184 0.0481218 0.721849 0.14477 0.108274 0.318271 0.266873 0.0610299 0.0945505 -0.0120461 -0.0962207 0.0164349 -0.187719 0.227827 0.273599 0.173953
label 1 2 3 4 5 6 7 8 9 10 11 12 13 14 15 16 17 18 19 20 21 22 23
nr_sv 19 9 20 38 26 15 43 22 36 24 38 30 27 7 37 9 18 25 36 24 22 18 20
SV
0 0 0 0 0 0 0 0 0 0 43.79007412227664 87.74897478589328 0 0 0 0 0 0 0 0 0 0 1:0.444076 2:0.801588 3:0.584717 4:0.751894 5:0.636368 6:0.639573 7:0.482497 8:0.342739 9:0.82063 10:0.655724 11:0.842528 12:0.378481 13:0.0572838 14:0.0634124 15:0.532679 16:0.466083 17:0.401632 18:0.677571 19:0.284264 20:0.268811 21:0.493856 22:0.633283 23:0.472639 24:0.436307 25:0.809604 26:0.213222 27:0.491297 28:0.487792 29:0.573662 30:0.511161 31:0.695897 32:0.42494 33:0.346764 34:0.599857 35:0.755075 36:0.364704 37:0.527289 38:0.24777 39:0.628686 40:0.550754 41:0.702096 42:0.337058 43:0.391342 44:0.71498 45:0.359782 46:0.331857 47:0.401747 48:0.622918 49:0.570314 50:0.530976 51:0.610591 52:0.86703 53:0.259696 54:0.37234 55:0.224278 56:0.331115 57:0.393091 58:0.203116 59:0.269044 60:0.548543 61:0.459718 62:0.293509 63:0.599698 64:0.500324 65:0.520906 66:0.281926 67:0.612388 68:0.340654 69:0.534683 70:0.814962 71:0.555786 72:0.733478 73:0.707562 74:0.553903 75:0.285483 76:0.114056 77:0.391183 78:0.681848 79:0.247406 80:0.536885 81:0.379811 82:0.823306 83:0.623969 84:0.725774 85:0.728362 86:0.389305 87:0.453651 88:0.528105 89:0.50703 90:0.495237 91:0.46923 92:0.444702 93:0.350278 94:0.415394 95:0.471458 96:0.158524 97:0.404604 98:0.39266 99:0.30168 100:0.525166 101:0.494518 102:0.496705 103:0.509882 104:0.402721 105:0.87908 106:0.389526 107:0.86342 108:0.602057 109:0.681023 110:0.884831 111:0.414461 112:0.543812 113:0.471308 114:0.78519 115:0.626106 116:0.146817 117:0.514699 118:0.503964 119:0.651197 120:0.41603 121:0.667822 122:0.802272 123:0.461166 124:0.663535 125:0.84841 126:0.159946 127:0.832759 128:0.605759 
0 0 0 0 0 0 128 0 0 0 0 39.50004203116105 0 0 0 0 0 0 0 114.4504492668238 0 0 1:0.374387 2:0.925992 3:0.629708 4:0.733337 5:0.4988 6:0.679501 7:0.544237 8:0.372102 9:0.722756 10:0.660636 11:0.851816 12:0.394922 13:0.1613 14:0.161382 15:0.515839 16:0.352912 17:0.43278 18:0.645664 19:0.232638 20:0.241112 21:0.40868 22:0.631878 23:0.402595 24:0.60227 25:0.756114 26:0.142782 27:0.48055 28:0.604163 29:0.58706 30:0.539481 31:0.655558 32:0.28501 33:0.245471 34:0.581019 35:0.572333 36:0.343488 37:0.430379 38:0.261567 39:0.436081 40:0.801727 41:0.671315 42:0.455375 43:0.405486 44:0.778411 45:0.333536 46:0.284938 47:0.531817 48:0.53087 49:0.557936 50:0.597745 51:0.751523 52:0.802929 53:0.137501 54:0.373797 55:0.223313 56:0.442266 57:0.28121 58:0.397942 59:0.542405 60:0.516923 61:0.377884 62:0.371146 63:0.559861 64:0.45865 65:0.458933 66:0.241566 67:0.768609 68:0.202055 69:0.434694 70:0.82069 71:0.674534 72:0.802876 73:0.942546 74:0.666688 75:0.389957 76:0.174152 77:0.293576 78:0.686191 79:0.285866 80:0.530474 81:0.392456 82:0.762281 83:0.685159 84:0.710303 85:0.669886 86:0.402955 87:0.502205 88:0.342675 89:0.485994 90:0.409516 91:0.231752 92:0.309855 93:0.488041 94:0.184513 95:0.515604 96:0.118346 97:0.456687 98:0.37147 99:0.309171 100:0.60038 101:0.248355 102:0.663718 103:0.683713 104:0.565359 105:0.651573 106:0.41878 107:0.666903 108:0.626387 109:0.587622 110:0.80045 111:0.569656 112:0.594062 113:0.487056 114:0.828498 115:0.407649 116:0.209954 117:0.560122 118:0.54165 119:0.60692 120:0.404835 121:0.580086 122:0.727854 123:0.317022 124:0.634663 125:0.792781 126:0.205397 127:0.637327 128:0.61896 
0 0 0 0 0 0 10.17107209141491 0 0 0 30.74835924073927 0 0 0 0 0 0 0 64.29840677485433 0 0 0 1:0.548727 2:0.718 3:0.56244 4:0.718888 5:0.584641 6:0.673576 7:0.513147 8:0.45311 9:0.803275 10:0.651369 11:0.881893 12:0.36377 13:0.078078 14:0.113538 15:0.562486 16:0.38957 17:0.437416 18:0.598541 19:0.340122 20:0.24047 21:0.481677 22:0.626824 23:0.463811 24:0.41236 25:0.805335 26:0.233889 27:0.567505 28:0.521757 29:0.508747 30:0.435444 31:0.685327 32:0.336612 33:0.349619 34:0.610179 35:0.692625 36:0.348905 37:0.535182 38:0.267429 39:0.645956 40:0.546897 41:0.705845 42:0.355928 43:0.329813 44:0.691473 45:0.323342 46:0.285797 47:0.260069 48:0.593229 49:0.609624 50:0.531746 51:0.588064 52:0.889593 53:0.269384 54:0.452264 55:0.225879 56:0.307511 57:0.394795 58:0.214234 59:0.2397 60:0.533019 61:0.457302 62:0.265427 63:0.607376 64:0.479863 65:0.476458 66:0.330678 67:0.653937 68:0.433937 69:0.580628 70:0.786997 71:0.567596 72:0.723384 73:0.679822 74:0.518491 75:0.308971 76:0.143894 77:0.415084 78:0.646852 79:0.285629 80:0.570497 81:0.318795 82:0.749067 83:0.728227 84:0.699485 85:0.753486 86:0.361692 87:0.531457 88:0.564744 89:0.563859 90:0.459522 91:0.479919 92:0.395772 93:0.388309 94:0.480302 95:0.442602 96:0.100082 97:0.464447 98:0.326646 99:0.279231 100:0.523684 101:0.505389 102:0.538151 103:0.508689 104:0.370212 105:0.872329 106:0.395259 107:0.867388 108:0.562888 109:0.641828 110:0.817119 111:0.452482 112:0.540304 113:0.505893 114:0.791081 115:0.687642 116:0.173303 117:0.514851 118:0.508422 119:0.665458 120:0.396117 121:0.65472 122:0.714919 123:0.473655 124:0.659086 125:0.911949 126:0.145757 127:0.881924 128:0.675378 
0 0 52.45757623224009 118.9679145904551 0 40.73437848998825 0 39.79510782754597 103.2326169329797 39.28840794436874 0 0 0 51.11813955159984 0 97.25339886046636 0 86.90244999356415 123.3279074707784 0 0 0 1:0.415204 2:0.829645 3:0.414943 4:0.649195 5:0.582683 6:0.38439 7:0.687039 8:0.211365 9:0.828078 10:0.697412 11:0.782607 12:0.399371 13:0.271861 14:0.426024 15:0.496009 16:0.271319 17:0.58772 18:0.649432 19:0.286213 20:0.258654 21:0.331029 22:0.639068 23:0.183702 24:0.418334 25:0.701161 26:0.211505 27:0.388144 28:0.759395 29:0.626601 30:0.80389 31:0.553069 32:0.555451 33:0.465787 34:0.365332 35:0.627425 36:0.249323 37:0.497821 38:0.334749 39:0.672628 40:0.601551 41:0.64334 42:0.47848 43:0.415057 44:0.633781 45:0.421728 46:0.472068 47:0.182369 48:0.633678 49:0.699382 50:0.313813 51:0.565902 52:0.957679 53:0.431626 54:0.319895 55:0.160012 56:0.405654 57:0.278106 58:0.361474 59:0.274441 60:0.645605 61:0.451644 62:0.389059 63:0.508331 64:0.655497 65:0.267375 66:0.410296 67:0.653224 68:0.425313 69:0.471245 70:0.482325 71:0.835528 72:0.458158 73:0.790097 74:0.475887 75:0.378867 76:0.468629 77:0.34975 78:0.332625 79:0.293466 80:0.532998 81:0.413857 82:0.769322 83:0.628154 84:0.794892 85:0.779347 86:0.437985 87:0.447294 88:0.290601 89:0.482927 90:0.417548 91:0.209591 92:0.288746 93:0.618354 94:0.429842 95:0.404045 96:0.0444845 97:0.383529 98:0.21959 99:0.450292 100:0.482216 101:0.613703 102:0.688107 103:0.77837 104:0.576024 105:0.585465 106:0.420461 107:0.771261 108:0.655952 109:0.650773 110:0.830838 111:0.665712 112:0.298821 113:0.285132 114:0.85507 115:0.269376 116:0.261237 117:0.392543 118:0.622972 119:0.636076 120:0.340972 121:0.562767 122:0.584793 123:0.167971 124:0.533858 125:0.800007 126:0.273056 127:0.52823 128:0.512992 
0 0 48.98106328365326 128 0 0 0 0 0 0 0 26.38902305251381 0 0 0 0 113.8679038288162 0 0 0 7.43979215907355 0 1:0.337169 2:0.811774 3:0.630893 4:0.712446 5:0.561291 6:0.427617 7:0.653153 8:0.406824 9:0.766683 10:0.541122 11:0.667631 12:0.342531 13:0.122231 14:0.283374 15:0.46514 16:0.343178 17:0.404628 18:0.48276 19:0.346609 20:0.272015 21:0.508817 22:0.574602 23:0.388888 24:0.358534 25:0.727349 26:0.218274 27:0.36473 28:0.512013 29:0.601294 30:0.613199 31:0.574653 32:0.348079 33:0.472293 34:0.383419 35:0.67797 36:0.323264 37:0.529679 38:0.392238 39:0.451241 40:0.589536 41:0.674541 42:0.493947 43:0.383696 44:0.711493 45:0.349622 46:0.622149 47:0.457567 48:0.344585 49:0.57647 50:0.403633 51:0.492362 52:0.970561 53:0.343338 54:0.470418 55:0.34691 56:0.331689 57:0.506401 58:0.215232 59:0.364398 60:0.539277 61:0.570277 62:0.317663 63:0.41784 64:0.637356 65:0.501226 66:0.208089 67:0.67718 68:0.413741 69:0.655904 70:0.69442 71:0.82347 72:0.640912 73:0.746543 74:0.478043 75:0.452098 76:0.519978 77:0.188196 78:0.701539 79:0.313 80:0.555651 81:0.240224 82:0.78981 83:0.66098 84:0.882878 85:0.782531 86:0.448546 87:0.531866 88:0.494936 89:0.402382 90:0.324275 91:0.274189 92:0.448844 93:0.482044 94:0.214713 95:0.353026 96:0.0220062 97:0.610127 98:0.416142 99:0.431597 100:0.501763 101:0.430443 102:0.69187 103:0.755145 104:0.44179 105:0.601871 106:0.32706 107:0.753394 108:0.764017 109:0.684466 110:0.776409 111:0.505813 112:0.323048 113:0.231142 114:0.636378 115:0.487193 116:0.422965 117:0.443454 118:0.345043 119:0.552086 120:0.411137 121:0.493343 122:0.876262 123:0.255893 124:0.646155 125:0.815309 126:0.281113 127:0.775003 128:0.746128 
0 0 0 0 51.62363677031388 0 0 0 0 0 0 0 0 0 0 0 48.78249738960744 0 0 0 0 0 1:0.421615 2:0.833026 3:0.545085 4:0.706964 5:0.476208 6:0.498907 7:0.608437 8:0.356498 9:0.916178 10:0.62641 11:0.916534 12:0.346435 13:0.228446 14:0.28113 15:0.515075 16:0.328118 17:0.503365 18:0.696835 19:0.211581 20:0.206752 21:0.471195 22:0.619219 23:0.340228 24:0.461897 25:0.758161 26:0.170278 27:0.468601 28:0.595972 29:0.550501 30:0.64705 31:0.670786 32:0.459309 33:0.477012 34:0.53981 35:0.644055 36:0.268905 37:0.493092 38:0.383148 39:0.560793 40:0.651256 41:0.655958 42:0.452286 43:0.337303 44:0.756726 45:0.385286 46:0.317244 47:0.234698 48:0.504658 49:0.623432 50:0.398307 51:0.605609 52:0.891885 53:0.302897 54:0.366268 55:0.147974 56:0.450133 57:0.303618 58:0.30469 59:0.338638 60:0.545198 61:0.384735 62:0.236071 63:0.519164 64:0.56539 65:0.389043 66:0.32824 67:0.70198 68:0.381566 69:0.495144 70:0.676584 71:0.740841 72:0.539578 73:0.77472 74:0.460155 75:0.330699 76:0.236902 77:0.287371 78:0.488625 79:0.209061 80:0.552512 81:0.304545 82:0.760657 83:0.621284 84:0.691621 85:0.703235 86:0.433992 87:0.525364 88:0.304245 89:0.474409 90:0.398101 91:0.244108 92:0.219733 93:0.478651 94:0.272546 95:0.470741 96:0.111188 97:0.34982 98:0.275233 99:0.359655 100:0.580767 101:0.448011 102:0.611854 103:0.689459 104:0.588789 105:0.729917 106:0.343119 107:0.74863 108:0.626043 109:0.668031 110:0.710947 111:0.472588 112:0.439699 113:0.298284 114:0.810183 115:0.496731 116:0.221814 117:0.459313 118:0.467415 119:0.712916 120:0.382342 121:0.630748 122:0.727307 123:0.228278 124:0.701997 125:0.929027 126:0.112574 127:0.707183 128:0.622354 
0 0 0 0 0 6.135957954244141 0 0 0 0 0 0 0 0 0 0 0 0 0 4.292433720431638 34.97468917945487 0 1:0.288921 2:0.76772 3:0.609944 4:0.729839 5:0.612207 6:0.490342 7:0.60889 8:0.417711 9:0.565881 10:0.920121 11:0.736119 12:0.391099 13:0.164484 14:0.159556 15:0.612086 16:0.453537 17:0.393273 18:0.81656 19:0.422221 20:0.285935 21:0.453817 22:0.508908 23:0.656429 24:0.283331 25:0.676093 26:0.307966 27:0.369469 28:0.350027 29:0.531248 30:0.504154 31:0.474236 32:0.555855 33:0.495908 34:0.571975 35:0.82791 36:0.199895 37:0.608313 38:0.392349 39:0.597789 40:0.462661 41:0.660655 42:0.318805 43:0.454481 44:0.666403 45:0.106528 46:0.416859 47:0.566594 48:0.48453 49:0.459269 50:0.460313 51:0.683619 52:0.776439 53:0.209588 54:0.539588 55:0.293874 56:0.380956 57:0.653818 58:0.0698671 59:0.363052 60:0.566456 61:0.585069 62:0.257495 63:0.424391 64:0.526091 65:0.738708 66:0.342283 67:0.451531 68:0.371765 69:0.608018 70:0.767633 71:0.514011 72:0.722805 73:0.755977 74:0.592906 75:0.284624 76:0.190732 77:0.315609 78:0.694064 79:0.351741 80:0.344586 81:0.225933 82:0.779751 83:0.521172 84:0.759091 85:0.692007 86:0.363838 87:0.483176 88:0.571157 89:0.61254 90:0.459672 91:0.366994 92:0.580819 93:0.421681 94:0.180114 95:0.393658 96:0.126941 97:0.453332 98:0.616035 99:0.355319 100:0.549678 101:0.538796 102:0.536299 103:0.748458 104:0.393083 105:0.977377 106:0.284068 107:0.834597 108:0.664905 109:0.737918 110:0.864743 111:0.259193 112:0.528541 113:0.51519 114:0.55524 115:0.609623 116:0.118169 117:0.636007 118:0.316497 119:0.630824 120:0.337905 121:0.676196 122:0.769033 123:0.449404 124:0.661722 125:0.831888 126:0.145451 127:0.812194 128:0.690578 
0 0 0 0 0 0 62.43755265286832 0 0 0 0 0 0 0 0 0 0 0 0 0 0 0 1:0.429671 2:0.838553 3:0.61602 4:0.717979 5:0.5031 6:0.626432 7:0.526234 8:0.372358 9:0.759723 10:0.60512 11:0.824533 12:0.341162 13:0.0861556 14:0.180586 15:0.493178 16:0.32661 17:0.442791 18:0.655444 19:0.278085 20:0.24035 21:0.41684 22:0.647867 23:0.527349 24:0.494006 25:0.677325 26:0.157053 27:0.499692 28:0.571095 29:0.56503 30:0.466739 31:0.651495 32:0.25278 33:0.302251 34:0.472897 35:0.689858 36:0.377002 37:0.411913 38:0.320679 39:0.422663 40:0.733889 41:0.605196 42:0.50881 43:0.260488 44:0.769554 45:0.289347 46:0.396254 47:0.372317 48:0.551495 49:0.579301 50:0.580252 51:0.639833 52:0.910252 53:0.212221 54:0.371307 55:0.174313 56:0.325222 57:0.425803 58:0.318376 59:0.440076 60:0.547689 61:0.431916 62:0.380705 63:0.58072 64:0.509584 65:0.502545 66:0.169961 67:0.742054 68:0.306264 69:0.507135 70:0.874184 71:0.733163 72:0.725897 73:0.917538 74:0.605765 75:0.303298 76:0.185707 77:0.232516 78:0.663648 79:0.283445 80:0.521023 81:0.343303 82:0.756834 83:0.60648 84:0.695752 85:0.695384 86:0.357205 87:0.458516 88:0.399406 89:0.443348 90:0.40144 91:0.334297 92:0.417807 93:0.488654 94:0.224679 95:0.550001 96:0.0780897 97:0.52065 98:0.374306 99:0.296912 100:0.584356 101:0.379143 102:0.689987 103:0.612631 104:0.439878 105:0.751356 106:0.34369 107:0.804402 108:0.585942 109:0.675227 110:0.84002 111:0.55029 112:0.546296 113:0.519008 114:0.81181 115:0.468727 116:0.283404 117:0.531156 118:0.484299 119:0.629099 120:0.391187 121:0.513149 122:0.711466 123:0.314688 124:0.636775 125:0.851583 126:0.165468 127:0.718227 128:0.636375 
0 0 0 0 0 0 0 0 0 0 0 0 20.79614007793697 0 0 0 0 0 0 0 0 0 1:0.283344 2:0.931362 3:0.54381 4:0.77802 5:0.576074 6:0.512497 7:0.597493 8:0.294301 9:0.829358 10:0.668947 11:0.735672 12:0.420646 13:0.10868 14:0.173405 15:0.519236 16:0.240143 17:0.421056 18:0.672967 19:0.275135 20:0.296127 21:0.336811 22:0.514097 23:0.423028 24:0.466219 25:0.846529 26:0.106454 27:0.416796 28:0.601705 29:0.479376 30:0.595997 31:0.673526 32:0.416541 33:0.415204 34:0.567451 35:0.66767 36:0.266744 37:0.525045 38:0.302953 39:0.460325 40:0.567696 41:0.761809 42:0.347231 43:0.500298 44:0.762568 45:0.243536 46:0.35646 47:0.456831 48:0.585724 49:0.60725 50:0.550951 51:0.627155 52:0.817829 53:0.276865 54:0.318702 55:0.266348 56:0.429195 57:0.230605 58:0.290848 59:0.414405 60:0.503869 61:0.393463 62:0.336469 63:0.517716 64:0.496173 65:0.502383 66:0.352962 67:0.648883 68:0.213207 69:0.406078 70:0.72214 71:0.650412 72:0.696462 73:0.857699 74:0.630368 75:0.35405 76:0.229464 77:0.385515 78:0.559881 79:0.300885 80:0.509779 81:0.248418 82:0.749647 83:0.583844 84:0.760905 85:0.72844 86:0.360033 87:0.412094 88:0.410791 89:0.582355 90:0.454604 91:0.287757 92:0.302318 93:0.5554 94:0.10747 95:0.483927 96:0.0632509 97:0.407235 98:0.383526 99:0.349005 100:0.478732 101:0.341363 102:0.603468 103:0.773032 104:0.502645 105:0.687523 106:0.419561 107:0.750592 108:0.703699 109:0.633941 110:0.881561 111:0.548071 112:0.509059 113:0.382052 114:0.824891 115:0.370583 116:0.0630976 117:0.589178 118:0.50403 119:0.747217 120:0.433538 121:0.648794 122:0.811154 123:0.238001 124:0.697432 125:0.834815 126:0.094714 127:0.720942 128:0.561785 
0 0 0 0 0 0 1.177691059104235 0 0 0 0 0 0 0 10.98278710482902 0 0 0 0 10.64370858293897 0 0 1:0.460716 2:0.885529 3:0.633953 4:0.809034 5:0.450078 6:0.671332 7:0.520965 8:0.39652 9:0.706991 10:0.708598 11:0.910357 12:0.312275 13:0.107527 14:0.107867 15:0.543193 16:0.406555 17:0.464152 18:0.681569 19:0.256987 20:0.220405 21:0.40871 22:0.558537 23:0.513271 24:0.52012 25:0.802473 26:0.134914 27:0.494502 28:0.555088 29:0.524318 30:0.429477 31:0.679898 32:0.337809 33:0.227241 34:0.600182 35:0.601908 36:0.300703 37:0.413776 38:0.305685 39:0.547007 40:0.731832 41:0.608251 42:0.407563 43:0.304691 44:0.682652 45:0.393718 46:0.271808 47:0.394133 48:0.539366 49:0.501022 50:0.572946 51:0.736486 52:0.84434 53:0.171289 54:0.352768 55:0.115096 56:0.362785 57:0.378986 58:0.305019 59:0.493397 60:0.537594 61:0.436469 62:0.359224 63:0.540212 64:0.414155 65:0.501888 66:0.313403 67:0.725289 68:0.293707 69:0.444668 70:0.826374 71:0.602078 72:0.789727 73:0.862663 74:0.656538 75:0.315054 76:0.0516131 77:0.379526 78:0.640011 79:0.265127 80:0.552148 81:0.308392 82:0.696567 83:0.599935 84:0.59858 85:0.641223 86:0.416801 87:0.4332 88:0.343305 89:0.508464 90:0.369654 91:0.298325 92:0.3752 93:0.486775 94:0.299446 95:0.544061 96:0.162605 97:0.483679 98:0.334595 99:0.274161 100:0.616795 101:0.30952 102:0.576771 103:0.526606 104:0.560052 105:0.837016 106:0.39195 107:0.810552 108:0.60284 109:0.648659 110:0.783307 111:0.443635 112:0.652503 113:0.586196 114:0.810515 115:0.555691 116:0.145281 117:0.497662 118:0.57831 119:0.686074 120:0.363266 121:0.532961 122:0.722663 123:0.36338 124:0.68952 125:0.920329 126:0.135541 127:0.706415 128:0.537867 
0 0 0 0 0 0 0 0 0 0 0 0 3.149892250000906 0 0 0 0 0 0 0 0 0 1:0.476222 2:0.892319 3:0.679979 4:0.705454 5:0.548918 6:0.561161 7:0.622362 8:0.378156 9:0.575411 10:0.672099 11:0.756317 12:0.266534 13:0.0846632 14:0.195672 15:0.558216 16:0.369443 17:0.467884 18:0.725085 19:0.288693 20:0.237679 21:0.397925 22:0.602989 23:0.644368 24:0.378193 25:0.710399 26:0.123826 27:0.432477 28:0.634899 29:0.62188 30:0.444322 31:0.567593 32:0.303272 33:0.291359 34:0.480173 35:0.77444 36:0.192393 37:0.410108 38:0.371864 39:0.508592 40:0.618035 41:0.529717 42:0.496901 43:0.357505 44:0.722845 45:0.242112 46:0.454513 47:0.382226 48:0.557504 49:0.423049 50:0.598123 51:0.640625 52:0.887279 53:0.195604 54:0.378678 55:0.115455 56:0.238358 57:0.48202 58:0.308553 59:0.432874 60:0.557592 61:0.498674 62:0.439617 63:0.552058 64:0.512272 65:0.576205 66:0.299315 67:0.579143 68:0.293637 69:0.410281 70:0.825639 71:0.706308 72:0.711803 73:0.948443 74:0.652929 75:0.249883 76:0.137476 77:0.34089 78:0.530771 79:0.362875 80:0.465135 81:0.33918 82:0.666939 83:0.51595 84:0.652503 85:0.682202 86:0.292437 87:0.305145 88:0.38192 89:0.516612 90:0.485007 91:0.433002 92:0.457491 93:0.454095 94:0.217339 95:0.588297 96:0.112229 97:0.557125 98:0.504601 99:0.251545 100:0.582641 101:0.37792 102:0.692818 103:0.642479 104:0.462626 105:0.767665 106:0.370032 107:0.889411 108:0.659007 109:0.800663 110:0.779491 111:0.579087 112:0.577727 113:0.558638 114:0.858972 115:0.512585 116:0.203834 117:0.561957 118:0.589984 119:0.676661 120:0.375014 121:0.452344 122:0.679955 123:0.327569 124:0.640057 125:0.901775 126:0.0955616 127:0.770907 128:0.465974 
0 0 0 0 0 0 107.1315078938642 12.84795339824466 0 0 45.92598774892934 0 0 0 0 0 32.48173457071574 0 0 0 0 0 1:0.496604 2:0.781744 3:0.709874 4:0.755915 5:0.520118 6:0.678368 7:0.567866 8:0.422408 9:0.688459 10:0.593854 11:0.830332 12:0.300838 13:0.119581 14:0.191 15:0.501762 16:0.375982 17:0.453991 18:0.656998 19:0.26784 20:0.215247 21:0.546101 22:0.63007 23:0.437674 24:0.496736 25:0.732437 26:0.181284 27:0.397859 28:0.510649 29:0.576438 30:0.460252 31:0.669648 32:0.248983 33:0.183817 34:0.452962 35:0.713777 36:0.395192 37:0.341421 38:0.311924 39:0.475356 40:0.683006 41:0.579873 42:0.570698 43:0.249219 44:0.758517 45:0.373429 46:0.377989 47:0.368855 48:0.478239 49:0.547285 50:0.496245 51:0.655024 52:0.890936 53:0.204781 54:0.396321 55:0.195385 56:0.311559 57:0.43857 58:0.343258 59:0.505951 60:0.50809 61:0.51837 62:0.383067 63:0.540657 64:0.514324 65:0.510691 66:0.179268 67:0.772099 68:0.360458 69:0.564967 70:0.866854 71:0.793831 72:0.800109 73:0.948035 74:0.530301 75:0.245729 76:0.203341 77:0.182288 78:0.701961 79:0.304441 80:0.558899 81:0.35467 82:0.774417 83:0.653833 84:0.664627 85:0.688365 86:0.352578 87:0.543737 88:0.435855 89:0.42634 90:0.354312 91:0.334183 92:0.455292 93:0.453107 94:0.271842 95:0.470649 96:0.0983823 97:0.577154 98:0.359502 99:0.252307 100:0.640958 101:0.400664 102:0.726239 103:0.574944 104:0.421642 105:0.739876 106:0.354784 107:0.804858 108:0.572579 109:0.700121 110:0.807854 111:0.517763 112:0.520517 113:0.448298 114:0.758662 115:0.593358 116:0.37414 117:0.454203 118:0.472694 119:0.524338 120:0.326718 121:0.444108 122:0.727863 123:0.352997 124:0.616517 125:0.870464 126:0.226652 127:0.742881 128:0.655507 
0 0 23.73512190565738 0 52.06250716188741 0 0 6.68281758881478 31.37803845162127 0 4.146819534669463 0 0 27.06367842990835 0 0 32.61561930598818 0 29.2528598887466 0 15.61107677792795 0 1:0.476453 2:0.732676 3:0.66631 4:0.695203 5:0.417475 6:0.463259 7:0.488279 8:0.349678 9:0.828059 10:0.628487 11:0.820222 12:0.275607 13:0.105823 14:0.215982 15:0.53838 16:0.293191 17:0.52508 18:0.702591 19:0.382723 20:0.2804 21:0.455665 22:0.699429 23:0.4742 24:0.588306 25:0.610354 26:0.256968 27:0.554753 28:0.517773 29:0.699079 30:0.558951 31:0.626421 32:0.315893 33:0.49179 34:0.450009 35:0.836615 36:0.292497 37:0.535015 38:0.42666 39:0.538558 40:0.57372 41:0.521516 42:0.42821 43:0.175213 44:0.713175 45:0.378351 46:0.42852 47:0.256034 48:0.641292 49:0.621352 50:0.463738 51:0.569716 52:1 53:0.471242 54:0.35513 55:0.197821 56:0.315255 57:0.54998 58:0.230473 59:0.330835 60:0.505122 61:0.501068 62:0.322909 63:0.535951 64:0.638818 65:0.366757 66:0.227744 67:0.757704 68:0.27661 69:0.541611 70:0.73222 71:0.565989 72:0.433479 73:0.640983 74:0.525309 75:0.319595 76:0.109913 77:0.258461 78:0.612215 79:0.391888 80:0.602555 81:0.361063 82:0.806751 83:0.55237 84:0.626694 85:0.960514 86:0.236251 87:0.381616 88:0.446717 89:0.463119 90:0.491818 91:0.449837 92:0.553385 93:0.55153 94:0.423829 95:0.479195 96:0.075784 97:0.484219 98:0.391857 99:0.410709 100:0.427802 101:0.678351 102:0.718563 103:0.567284 104:0.413195 105:0.808902 106:0.262139 107:0.983718 108:0.458254 109:0.803116 110:0.826833 111:0.569162 112:0.514711 113:0.456877 114:0.706857 115:0.49201 116:0.35348 117:0.486605 118:0.333554 119:0.601373 120:0.339871 121:0.556213 122:0.656717 123:0.249848 124:0.539684 125:0.793265 126:0.235492 127:0.789898 128:0.592675 
51.07620826802517 23.10768994174865 0 0 0 0 0 0 0 0 0 0 81.87737877658198 0 47.52470270778135 0 0 0 0 0 5.210849047311601 0 1:0.53415 2:0.761276 3:0.532969 4:0.817857 5:0.511121 6:0.706543 7:0.470104 8:0.257682 9:0.838161 10:0.603155 11:0.963583 12:0.454048 13:0.155537 14:0.177194 15:0.463971 16:0.35139 17:0.428221 18:0.700203 19:0.31361 20:0.2594 21:0.52799 22:0.603094 23:0.30137 24:0.562559 25:0.86718 26:0.222186 27:0.49615 28:0.530561 29:0.428795 30:0.639618 31:0.711392 32:0.379446 33:0.288313 34:0.616517 35:0.700243 36:0.411083 37:0.438371 38:0.207839 39:0.680837 40:0.583351 41:0.640853 42:0.37219 43:0.403879 44:0.73487 45:0.422176 46:0.146836 47:0.366028 48:0.599243 49:0.67152 50:0.535807 51:0.700283 52:0.824004 53:0.303623 54:0.423747 55:0.273831 56:0.433625 57:0.242759 58:0.339162 59:0.345229 60:0.49789 61:0.449777 62:0.298963 63:0.688815 64:0.455208 65:0.408753 66:0.330827 67:0.736979 68:0.294091 69:0.474672 70:0.76994 71:0.587978 72:0.722669 73:0.745562 74:0.519303 75:0.265271 76:0.0953117 77:0.425812 78:0.533655 79:0.244451 80:0.637501 81:0.397114 82:0.788942 83:0.717566 84:0.639266 85:0.67913 86:0.36853 87:0.507812 88:0.396205 89:0.554071 90:0.461367 91:0.343511 92:0.280203 93:0.497177 94:0.439105 95:0.416038 96:0.118553 97:0.335497 98:0.30097 99:0.351481 100:0.55715 101:0.484963 102:0.631301 103:0.557379 104:0.438998 105:0.819216 106:0.479978 107:0.823514 108:0.541135 109:0.552253 110:0.87138 111:0.466552 112:0.487874 113:0.4579 114:0.79989 115:0.568787 116:0.218541 117:0.565624 118:0.578944 119:0.645573 120:0.37749 121:0.676927 122:0.656173 123:0.421248 124:0.562756 125:0.84673 126:0.250021 127:0.835173 128:0.700378 
38.59372838229979 38.9721354583065 128 128 33.52910788948756 36.81673534223943 101.379590129428 109.272040404473 110.2095367267355 113.9560032863727 92.89166754725434 128 15.72664788571442 122.1004873084398 29.55538826413749 85.7558918706852 24.88970023258254 61.76938117804233 1.163513138978159 25.03346932529438 50.48602845001327 51.61252398669377 1:0.296856 2:0.697053 3:0.715826 4:0.633511 5:0.675702 6:0.341038 7:0.64866 8:0.328617 9:0.331262 10:0.729122 11:0.709429 12:0.543486 13:0.228402 14:0.6833 15:0.578022 16:0.645667 17:0.546319 18:0.642011 19:0.597408 20:0.397922 21:0.588363 22:0.663858 23:0.44468 24:0.53866 25:0.594911 26:0.540011 27:0.415603 28:0.52755 29:0.788895 30:0.759028 31:0.23655 32:0.442609 33:0.533996 34:0.440654 35:0.649662 36:0.558389 37:0.641669 38:0.516172 39:0.563198 40:0.671971 41:0.457777 42:0.801125 43:0.708171 44:0.521742 45:0.254111 46:0.566627 47:0.959784 48:0.091629 49:0.505828 50:0.428712 51:0.651295 52:0.703738 53:0.12352 54:0.857871 55:0.697783 56:0.639611 57:0.633201 58:0.51971 59:0.392957 60:0.651184 61:0.619785 62:0.32567 63:0.556169 64:0.478895 65:0.781631 66:0.351937 67:0.459723 68:0.292115 69:0.634156 70:0.808916 71:0.704028 72:0.842355 73:0.800662 74:0.665667 75:0.608222 76:0.461486 77:0.400836 78:0.860915 79:0.410935 80:0.114339 81:0.471189 82:1 83:0.645725 84:0.731919 85:0.609924 86:0.327707 87:0.507742 88:0.580596 89:0.493134 90:0.487302 91:0.38052 92:0.488474 93:0.463524 94:0.251928 95:0.600843 96:0.233908 97:0.533871 98:0.768269 99:0.659103 100:0.680716 101:0.159419 102:0.626236 103:0.795391 104:0.466512 105:0.50384 106:0.569533 107:0.558268 108:0.4635 109:0.657046 110:0.545989 111:0.362726 112:0.463951 113:0.534614 114:0.562954 115:0.638347 116:0.488779 117:0.844647 118:0.166483 119:0.281954 120:0.36115 121:0.582159 122:0.783092 123:0.568064 124:0.457446 125:0.482543 126:0.730539 127:0.716667 128:0.741001 
6.349870206116709 0 0 0 0 0 8.182657737480737 0 0 0 0 0 0 0 0 0 0 128 11.74361495803748 24.34828440942477 0 47.85582515476864 1:0.445247 2:0.879562 3:0.607418 4:0.734857 5:0.50822 6:0.589813 7:0.574875 8:0.388291 9:0.81809 10:0.730618 11:0.936792 12:0.321199 13:0.209327 14:0.135355 15:0.688621 16:0.39137 17:0.39615 18:0.491937 19:0.202391 20:0.281531 21:0.308945 22:0.601154 23:0.426773 24:0.480949 25:0.804183 26:0.181607 27:0.513316 28:0.591033 29:0.566979 30:0.470598 31:0.684672 32:0.483833 33:0.3293 34:0.703873 35:0.533649 36:0.337899 37:0.589568 38:0.342279 39:0.630597 40:0.687463 41:0.788066 42:0.226242 43:0.326353 44:0.609745 45:0.347877 46:0.364682 47:0.29806 48:0.674991 49:0.562371 50:0.510141 51:0.601584 52:0.888684 53:0.242044 54:0.372076 55:0.183942 56:0.327635 57:0.261097 58:0.243272 59:0.317729 60:0.582359 61:0.292927 62:0.280433 63:0.494256 64:0.475668 65:0.378401 66:0.475274 67:0.744197 68:0.435518 69:0.495394 70:0.64132 71:0.533177 72:0.708265 73:0.714256 74:0.645172 75:0.528354 76:0.140903 77:0.40919 78:0.577175 79:0.295788 80:0.665275 81:0.404846 82:0.644096 83:0.646031 84:0.655695 85:0.699239 86:0.484264 87:0.518364 88:0.41405 89:0.501058 90:0.461014 91:0.417788 92:0.307903 93:0.508926 94:0.450698 95:0.319717 96:0.109107 97:0.388469 98:0.208102 99:0.456027 100:0.437824 101:0.414223 102:0.465174 103:0.546993 104:0.579817 105:0.78647 106:0.426207 107:0.742514 108:0.72028 109:0.673057 110:0.783768 111:0.483901 112:0.682306 113:0.421741 114:0.816396 115:0.50804 116:0.111096 117:0.393764 118:0.61115 119:0.699934 120:0.438411 121:0.679067 122:0.741614 123:0.35113 124:0.832511 125:0.896096 126:0.140245 127:0.690077 128:0.543734 
0 0 0 20.28394384220243 0 0 0 52.59899567605675 0 0 0 0 0 0 0 0 12.07236862909558 0 0 0 0 0 1:0.529331 2:0.78853 3:0.563221 4:0.799469 5:0.535892 6:0.59878 7:0.555753 8:0.306212 9:0.731634 10:0.612254 11:0.943012 12:0.400292 13:0.145377 14:0.215749 15:0.440779 16:0.407556 17:0.468196 18:0.717703 19:0.333587 20:0.234132 21:0.587316 22:0.590899 23:0.340667 24:0.45678 25:0.8177 26:0.24144 27:0.462148 28:0.470239 29:0.514452 30:0.650296 31:0.593365 32:0.378102 33:0.330094 34:0.534941 35:0.740049 36:0.368147 37:0.438183 38:0.283336 39:0.61229 40:0.581833 41:0.581176 42:0.459772 43:0.384241 44:0.779794 45:0.378108 46:0.369201 47:0.437883 48:0.440032 49:0.531336 50:0.429392 51:0.678409 52:0.887862 53:0.226541 54:0.447842 55:0.26471 56:0.412703 57:0.379837 58:0.287895 59:0.357941 60:0.558384 61:0.571725 62:0.243914 63:0.620071 64:0.516545 65:0.560554 66:0.212587 67:0.654014 68:0.364307 69:0.582832 70:0.833062 71:0.691447 72:0.699944 73:0.769049 74:0.435852 75:0.235551 76:0.206633 77:0.322009 78:0.683701 79:0.209198 80:0.535584 81:0.306568 82:0.81159 83:0.620585 84:0.672287 85:0.628312 86:0.399531 87:0.524437 88:0.378383 89:0.463588 90:0.424163 91:0.315735 92:0.340352 93:0.393247 94:0.322047 95:0.4345 96:0.114262 97:0.456657 98:0.348044 99:0.402625 100:0.593381 101:0.433145 102:0.68804 103:0.618583 104:0.449642 105:0.804225 106:0.375481 107:0.8198 108:0.647443 109:0.61313 110:0.78685 111:0.409249 112:0.415671 113:0.369721 114:0.723253 115:0.635578 116:0.29034 117:0.497442 118:0.412738 119:0.61366 120:0.354092 121:0.54677 122:0.766274 123:0.381022 124:0.658661 125:0.914921 126:0.227499 127:0.844453 128:0.669049 
0 22.28397172569316 0 0 0 91.84531142197513 0 0 0 127.1528010686736 0 21.77345291205344 0 8.106980127517545 0 0 0 31.25183891500217 104.6718767975146 6.894055021182089 0 0 1:0.194893 2:0.831167 3:0.747546 4:0.633706 5:0.558827 6:0.452642 7:0.697431 8:0.519801 9:0.447835 10:0.798635 11:0.521684 12:0.288777 13:0.0888131 14:0.290252 15:0.682056 16:0.267424 17:0.427765 18:0.535814 19:0.464589 20:0.264084 21:0.25789 22:0.513097 23:0.663037 24:0.26224 25:0.621366 26:0.196068 27:0.321659 28:0.535262 29:0.534014 30:0.330892 31:0.508778 32:0.31722 33:0.430215 34:0.36533 35:0.670243 36:0.325437 37:0.54124 38:0.386139 39:0.418885 40:0.667811 41:0.680203 42:0.476372 43:0.318602 44:0.528229 45:0.148135 46:0.734378 47:0.49121 48:0.364999 49:0.381728 50:0.484896 51:0.50159 52:0.900235 53:0.25042 54:0.46392 55:0.218499 56:0.316232 57:0.653284 58:0.202421 59:0.37369 60:0.667004 61:0.59355 62:0.53403 63:0.281106 64:0.511792 65:0.698407 66:0.313316 67:0.575488 68:0.46672 69:0.554825 70:0.741463 71:0.79318 72:0.751751 73:0.826301 74:0.655166 75:0.50063 76:0.555146 77:0.201799 78:0.692641 79:0.465642 80:0.366472 81:0.0884879 82:0.656349 83:0.550433 84:0.868814 85:0.660372 86:0.44134 87:0.454011 88:0.489321 89:0.42231 90:0.329924 91:0.327718 92:0.610027 93:0.659286 94:0.19681 95:0.432391 96:0.0694546 97:0.698603 98:0.497635 99:0.330494 100:0.5942 101:0.313135 102:0.642232 103:0.625356 104:0.391692 105:0.734887 106:0.382706 107:0.769852 108:0.721361 109:0.681727 110:0.805402 111:0.472824 112:0.447573 113:0.562729 114:0.56447 115:0.428639 116:0.295555 117:0.492007 118:0.383275 119:0.610884 120:0.428483 121:0.474841 122:0.690628 123:0.208385 124:0.655812 125:0.837967 126:0.274657 127:0.628791 128:0.599331 
0 0 0 0 17.31113497482274 96.77806040820047 0 0 0 0 0 0 0 0 0 0 0 0 0 0 0 0 1:0.374665 2:0.807664 3:0.592534 4:0.626858 5:0.485797 6:0.489974 7:0.533856 8:0.441016 9:0.950702 10:0.604633 11:0.844976 12:0.293371 13:0.182982 14:0.24743 15:0.552087 16:0.292163 17:0.454078 18:0.558627 19:0.23181 20:0.234676 21:0.438623 22:0.646081 23:0.350808 24:0.431543 25:0.709138 26:0.180273 27:0.523963 28:0.630949 29:0.564619 30:0.528039 31:0.675724 32:0.334817 33:0.472546 34:0.561267 35:0.640341 36:0.349658 37:0.587772 38:0.374801 39:0.511254 40:0.645917 41:0.70649 42:0.418551 43:0.302469 44:0.699504 45:0.414853 46:0.383315 47:0.207403 48:0.582476 49:0.660651 50:0.450406 51:0.49422 52:0.923738 53:0.308967 54:0.427917 55:0.196623 56:0.35878 57:0.332895 58:0.202768 59:0.270088 60:0.511161 61:0.420749 62:0.265096 63:0.467378 64:0.605322 65:0.340423 66:0.317782 67:0.750698 68:0.456726 69:0.602593 70:0.671424 71:0.715047 72:0.542591 73:0.742377 74:0.470657 75:0.421588 76:0.281348 77:0.277527 78:0.601075 79:0.282747 80:0.559339 81:0.310537 82:0.77537 83:0.669343 84:0.764273 85:0.773765 86:0.450881 87:0.539049 88:0.474344 89:0.511853 90:0.423054 91:0.350789 92:0.300821 93:0.517112 94:0.340291 95:0.403286 96:0.0506894 97:0.391604 98:0.256094 99:0.35513 100:0.507249 101:0.485582 102:0.567946 103:0.620494 104:0.461209 105:0.741562 106:0.347953 107:0.746106 108:0.608883 109:0.644405 110:0.772324 111:0.501945 112:0.450009 113:0.315987 114:0.816588 115:0.480652 116:0.248388 117:0.43074 118:0.455903 119:0.653403 120:0.355525 121:0.603183 122:0.786093 123:0.286412 124:0.731599 125:0.885403 126:0.102336 127:0.722988 128:0.642104 
-52.86709853819489 0 28.65031865749326 90.03654965443496 65.94265039028716 55.31435307526961 76.36457903938705 51.18362906395247 41.11164871925183 49.04848355838971 43.41788525554642 95.41200224906497 38.25387697092805 37.25474236678059 39.65179309425682 49.43477746599967 80.82593758884583 13.30621792951556 74.22129242006123 57.88632406733912 22.99273272326595 54.99075559814529 1:0.323692 2:0.586229 3:0.219658 4:0.731359 5:0.688555 6:0.666016 7:0.757956 8:0.27609 9:0.873517 10:0.522217 11:0.758132 12:0.532563 13:0.348543 14:0.486845 15:0.532512 16:0.638265 17:0.598167 18:0.475505 19:0.355715 20:0.30971 21:0.545078 22:0.401124 23:0.509731 24:0.730495 25:0.731461 26:0.362054 27:0.463832 28:0.235737 29:0.666334 30:0.623867 31:0.975697 32:0.75604 33:0.490737 34:0.56278 35:0.533141 36:0.857901 37:0.419008 38:0.479029 39:0.333484 40:0.49137 41:0.729208 42:0.523817 43:0.477352 44:0.829575 45:0.409039 46:0.334685 47:0.595501 48:0.541161 49:0.530719 50:0.26985 51:0.30222 52:0.505491 53:0.512944 54:0.0597851 55:0.499666 56:1 57:0.053294 58:0.948867 59:0.397338 60:0.577599 62:0.385687 63:1 64:0.155959 65:0.8608 66:0.581263 67:0.45597 68:0.261977 69:0.260792 70:0.758652 71:0.421371 72:0.692295 73:0.357873 74:0.505424 75:0.454267 76:0.264625 77:0.628489 78:0.62779 79:0.179563 80:0.331349 81:0.242805 82:0.72582 83:0.307074 84:0.335966 85:0.349306 86:0.257998 87:0.552247 88:0.337029 89:0.342635 90:0.444209 91:0.739818 92:0.289664 93:0.338896 94:0.119976 95:1 96:0.698078 97:0.46532 98:0.535962 99:0.517845 100:0.832224 101:0.211833 102:0.258129 103:0.36434 104:0.487487 105:0.375951 106:0.665326 107:0.47301 108:0.341487 109:0.662954 110:0.494461 111:0.283262 112:0.751471 113:0.515769 114:0.431529 115:1 116:0.465483 117:0.653906 118:0.260424 119:0.823635 120:0.826042 121:0.839613 122:0.473752 123:0.426758 124:0.762866 125:0.46535 126:0.621741 127:0.505156 128:0.49609 
-0 0 2.555366761056468 0 0 0 0 6.886630887703379 0 0 20.20578849791363 0 128 0 59.25822035844496 11.5875842519099 15.58472302581768 0 0 0 0 0 1:0.401055 2:0.355186 3:0.491389 4:0.879042 5:0.696752 6:0.667415 7:0.409271 8:0.177726 9:0.748501 10:0.500378 11:0.70554 12:0.423042 13:0.252566 14:0.580532 15:0.545539 16:0.695846 17:0.677896 18:0.862714 19:0.366837 20:0.399648 21:0.579853 22:0.333467 23:0.8353 24:0.775187 25:0.806491 26:0.236858 27:0.375392 28:0.317835 29:0.228246 30:0.4241 31:0.912966 32:0.644051 33:0.485141 34:0.649929 35:0.759812 36:0.96048 37:0.244267 38:0.363225 39:0.314034 40:0.204557 41:0.504903 42:0.55488 43:0.486009 44:0.583158 45:0.507789 46:0.248287 47:0.405257 48:0.700004 49:0.490904 50:0.513127 51:0.396449 52:0.362621 53:0.66954 54:0.15402 55:0.418793 56:0.72683 57:0.302516 58:0.68665 59:0.558731 60:0.492523 61:0.301827 62:0.727228 63:0.72593 64:0.239015 65:0.792932 66:0.721697 67:0.236055 68:0.437974 69:0.177869 70:0.865267 71:0.483017 72:0.639818 73:0.471077 74:0.363508 75:0.19628 76:0.205813 77:0.712993 78:0.394832 79:0.307921 80:0.287468 81:0.289256 82:0.701699 83:0.187355 84:0.156993 85:0.284356 86:0.334912 87:0.265538 88:0.407373 89:0.394858 90:0.658857 91:0.811197 92:0.522621 93:0.559706 94:0.301738 95:0.866842 96:0.855467 97:0.231796 98:0.671495 99:0.310693 100:0.720506 101:0.67464 102:0.263915 103:0.204951 104:0.1262 105:0.844647 106:0.69034 107:0.663572 108:0.0844497 109:0.645739 110:0.657919 111:0.144671 112:0.776534 113:0.903405 114:0.474424 115:0.946023 116:0.396399 117:0.6367 118:0.538079 119:0.697218 120:0.702978 121:0.680953 122:0.353674 123:0.491485 124:0.546243 125:0.515136 126:0.669865 127:0.717629 128:0.418036 
-0 0 0 0 0 0 10.57566774907506 0 0 0 0 0 128 0 0 0 0 30.73978495952882 26.00614876438842 0 0 0 1:0.203781 2:0.414572 3:0.776199 4:0.880933 5:0.801728 6:0.459268 7:0.654393 8:0.15453 9:0.986085 10:0.485103 11:0.456523 12:0.557993 13:0.0216519 14:0.517253 15:0.542914 16:0.631247 17:0.627339 18:0.741385 19:0.190767 20:0.284603 21:0.397575 22:0.419564 23:0.492392 24:0.778756 25:0.848481 26:0.295902 27:0.293254 28:0.590366 29:0.412922 30:0.350966 31:0.889827 32:0.841304 33:0.341493 34:0.642893 35:0.615078 36:0.586806 37:0.338609 38:0.433309 39:0.400471 40:0.317116 41:0.796653 42:0.644683 43:0.568232 44:0.343097 45:0.722581 46:0.222018 47:0.162934 48:0.565288 49:0.64505 50:0.354641 51:0.368313 52:0.376042 53:0.735454 54:0.0594111 55:0.383329 56:0.713639 57:0.189757 58:0.767978 59:0.369164 60:0.550475 61:0.351161 62:0.735955 63:0.496884 64:0.355137 65:0.644679 66:0.909879 67:0.32953 68:0.322669 69:0.138764 70:0.709375 71:0.460423 72:0.671043 73:0.696224 74:0.649657 75:0.337539 76:0.293143 77:0.705254 78:0.247839 79:0.323412 80:0.162155 81:0.355592 82:0.918115 83:0.367182 84:0.279406 85:0.536571 86:0.127559 87:0.378175 88:0.582619 89:0.332329 90:0.560023 91:0.749198 92:0.569649 93:0.697754 94:0.378796 95:0.900024 96:0.909115 97:0.301528 98:0.389934 99:0.458914 100:0.787472 101:0.522691 103:0.160513 104:0.399443 105:0.738476 106:0.560903 107:0.686553 108:0.0972757 109:0.635324 110:0.629402 111:0.333854 112:0.845499 113:0.83377 114:0.600442 115:0.876901 116:0.199291 117:0.433325 118:0.728988 119:0.664812 120:0.535189 121:0.732129 122:0.692729 123:0.372408 124:0.408788 125:0.494448 126:0.718515 127:0.433736 128:0.109126 
-0 80.70895828107497 0 0 0 0 0 0 0 4.945949153509511 0 0 0 0 0 0 0 0 0 0 0 0 1:0.233054 2:0.533575 3:0.455632 4:0.945373 5:0.645443 6:0.667487 7:0.525575 8:0.0113889 9:0.831313 10:0.365636 11:0.590851 12:0.646328 13:0.17993 14:0.483995 15:0.426355 16:0.645646 17:0.562567 18:0.609004 19:0.339224 20:0.31156 21:0.502676 22:0.395525 23:0.509464 24:0.854771 25:0.774444 26:0.36502 27:0.336019 28:0.240877 29:0.309924 30:0.601164 31:0.98138 32:0.884536 33:0.362889 34:0.64114 35:0.640035 36:0.942033 37:0.350426 38:0.366081 39:0.345078 40:0.463827 41:0.730472 42:0.535812 43:0.546393 44:0.571857 45:0.631902 46:0.360021 47:0.682688 48:0.503203 49:0.485164 50:0.342614 51:0.452041 52:0.42425 53:0.730416 54:0.0826073 55:0.548358 56:0.951602 57:0.172022 58:0.876443 59:0.534249 60:0.558227 61:0.197152 62:0.68888 63:0.768645 64:0.135945 65:0.869339 66:0.62124 67:0.490584 68:0.220464 69:0.169746 70:0.882949 71:0.405496 72:0.674823 73:0.452452 74:0.562751 75:0.397353 76:0.342752 77:0.597944 78:0.478893 79:0.167752 80:0.344565 81:0.292751 82:0.860115 83:0.260544 84:0.246736 85:0.247999 86:0.268718 87:0.449055 88:0.287339 89:0.170427 90:0.530406 91:0.692635 92:0.42646 93:0.61412 94:0.193899 95:0.886662 96:0.902136 97:0.452969 98:0.543592 99:0.581284 100:0.787873 101:0.365156 102:0.252911 103:0.16658 104:0.50623 105:0.589617 106:0.604956 107:0.503926 108:0.262164 109:0.460047 110:0.678452 111:0.22024 112:0.745138 113:0.652527 114:0.341543 115:0.836867 116:0.419648 117:0.537744 118:0.381004 119:0.740663 120:0.739161 121:0.853766 122:0.560833 123:0.451785 124:0.51129 125:0.462061 126:0.795122 127:0.496602 128:0.340029 
-43.15270831824678 0 0 14.22063313474434 0 0 24.05899751382072 39.00375320899656 0 0 32.2870604810976 56.09504989708866 0 43.6574546956547 22.63345915457041 4.494870988719994 0 29.65735588303129 7.773262968631289 18.2207519183228 0 0 1:0.647766 2:0.392926 3:0.645941 4:0.941966 5:0.847617 6:0.574288 7:0.539352 8:0.0516324 9:0.715395 10:0.521737 11:0.616242 12:0.63362 13:0.163443 14:0.548079 15:0.503238 16:0.79579 17:0.839182 18:0.827665 19:0.308009 20:0.354996 21:0.535383 22:0.55059 23:0.482257 24:0.904003 25:0.877106 26:0.349132 27:0.422782 28:0.550316 29:0.358726 30:0.616943 31:0.713174 32:0.91386 33:0.282826 34:0.836999 35:0.616323 36:0.577253 37:0.426166 38:0.302923 39:0.609923 40:0.270932 41:0.599375 42:0.572377 43:0.723821 44:0.334481 45:0.753536 46:0.212234 47:0.385373 48:0.638907 49:0.567226 50:0.448868 51:0.734351 52:0.412109 53:0.680043 54:0.234151 55:0.50596 56:0.623306 57:0.270834 58:0.741459 59:0.504817 60:0.567234 61:0.481886 62:0.662712 63:0.5368 64:0.262559 65:0.619483 66:0.763618 67:0.251809 68:0.347863 69:0.139163 70:0.782757 71:0.33161 72:0.687226 73:0.49471 74:0.549645 75:0.202048 76:0.241902 77:0.971725 78:0.384186 79:0.289043 80:0.269882 81:0.545306 82:0.913469 83:0.414765 84:0.194881 85:0.563349 86:0.117881 87:0.304357 88:0.451025 89:0.336558 90:0.745161 91:0.671406 92:0.537411 93:0.506454 94:0.624216 95:0.791993 96:0.980615 97:0.357349 98:0.476407 99:0.524532 100:0.64896 101:0.693458 102:0.253434 103:0.171804 104:0.575949 105:0.73169 106:0.491362 107:0.57992 108:0.0931156 109:0.54959 110:0.635885 111:0.297216 112:0.826127 113:0.866596 114:0.635407 115:0.912672 116:0.207342 117:0.517276 118:0.68409 119:0.477612 120:0.553845 121:0.741501 122:0.664147 123:0.607562 124:0.340852 125:0.526936 126:0.718092 127:0.596057 128:0.0560816 
-0 0 0 0 10.47364508850211 0 0 0 0 0 0 0 128 0 21.71546702825599 0 0 0 0 0 0 20.56751912775551 1:0.353011 2:0.416528 3:0.65618 4:0.832738 5:0.725964 6:0.534212 7:0.379585 8:0.073352 9:0.833217 10:0.500446 11:0.605347 12:0.592592 13:0.310127 14:0.690806 15:0.532665 16:0.703749 17:0.818865 18:0.713828 19:0.247755 20:0.392088 21:0.472534 22:0.404227 23:0.613401 24:0.988038 25:0.889251 26:0.306515 27:0.473393 28:0.62228 29:0.292397 30:0.507508 31:0.886989 32:0.769147 33:0.451131 34:0.783137 35:0.472245 36:0.753779 37:0.379147 38:0.430252 39:0.423511 40:0.361496 41:0.608149 42:0.56664 43:0.629254 44:0.325668 45:0.753075 46:0.173621 47:0.325846 48:0.693338 49:0.622297 50:0.4477 51:0.573492 52:0.333009 53:0.742991 54:0.145755 55:0.469663 56:0.773437 57:0.166964 58:0.84486 59:0.539812 60:0.476206 61:0.327887 62:0.731425 63:0.524782 64:0.262855 65:0.588628 66:0.874493 67:0.307248 68:0.455885 69:0.0683021 70:0.711339 71:0.399485 72:0.617788 73:0.438232 74:0.478101 75:0.428757 76:0.372993 77:0.858067 78:0.32362 79:0.357773 80:0.326237 81:0.399453 82:0.791412 83:0.439159 84:0.216761 85:0.44065 86:0.174836 87:0.354852 88:0.483901 89:0.359618 90:0.623316 91:0.547398 92:0.425394 93:0.79451 94:0.583428 95:0.79931 96:0.915493 97:0.207098 98:0.483408 99:0.502036 100:0.625018 101:0.613308 102:0.155049 103:0.0569385 104:0.580128 105:0.708994 106:0.601691 107:0.438625 108:0.0447468 109:0.536012 110:0.512545 111:0.271041 112:0.890597 113:0.861137 114:0.710788 115:0.774536 116:0.316174 117:0.385499 118:0.754462 119:0.521391 120:0.696122 121:0.710384 122:0.568186 123:0.341236 124:0.386626 125:0.442579 126:0.818108 127:0.411772 128:0.155406 
-0 0 14.73089720663595 0 28.12203952726928 39.5491762293534 0 0 29.94835647524415 17.99255733623656 0 0 0 0 0 0 16.09483992281982 0 0 0 0 0 1:0.387893 2:0.303488 3:0.816718 4:0.902705 5:0.761724 6:0.432672 7:0.406543 8:0.0740962 9:0.863974 10:0.352214 11:0.492784 12:0.680735 13:0.20053 14:0.656623 15:0.447809 16:0.698939 17:0.858396 18:0.767004 19:0.215635 20:0.382111 21:0.506624 22:0.507368 23:0.658753 24:0.953504 25:0.760608 26:0.37011 27:0.453618 28:0.551809 29:0.236243 30:0.460161 31:0.822721 32:0.877901 33:0.476199 34:0.80377 35:0.576318 36:0.612757 37:0.457289 38:0.509181 39:0.392245 40:0.331185 41:0.650101 42:0.693396 43:0.60384 44:0.268465 45:0.729732 46:0.228396 47:0.294162 48:0.513156 49:0.63458 50:0.438236 51:0.594455 52:0.325766 53:0.80628 54:0.249049 55:0.490048 56:0.670128 57:0.337191 58:0.752152 59:0.513657 60:0.498779 61:0.443088 62:0.714166 63:0.363202 64:0.309326 65:0.667086 66:0.756225 67:0.322403 68:0.409748 69:0.125047 70:0.791923 71:0.374833 72:0.516004 73:0.512416 74:0.516349 75:0.334675 76:0.378315 77:0.786802 78:0.327696 79:0.310692 80:0.266356 81:0.376333 82:0.903624 83:0.412785 84:0.205151 85:0.561344 86:0.0749028 87:0.395558 88:0.533915 89:0.224125 90:0.607656 91:0.585437 92:0.529537 93:0.744301 94:0.522512 95:0.826878 96:1 97:0.307815 98:0.515193 99:0.495073 100:0.676088 101:0.622829 102:0.157871 103:0.0543537 104:0.674702 105:0.818243 106:0.380352 107:0.526367 108:0.0370854 109:0.541133 110:0.515212 111:0.173277 112:0.854767 113:0.826333 114:0.650893 115:0.810072 116:0.28977 117:0.381135 118:0.585138 119:0.480992 120:0.611877 121:0.697855 122:0.787369 123:0.373751 124:0.302965 125:0.521759 126:0.726184 127:0.461083 128:0.113045 
-0 47.64456976027861 35.19736566299838 0 0 0 0 0 0 0 0.5016691657781325 20.79255852259472 128 0 38.58319247796623 77.48551106396698 0 9.423177010980655 0 19.29471464362811 0 36.62050541423082 1:0.46706 2:0.426157 3:0.537488 4:0.808329 5:0.976777 6:0.610702 7:0.371728 8:0.0478184 9:0.613166 10:0.479326 11:0.488929 12:0.604501 13:0.273869 14:0.641066 15:0.581656 16:0.771622 17:0.799377 18:0.665388 19:0.369446 20:0.543003 21:0.439089 22:0.445465 23:0.814051 24:0.879821 25:0.853312 26:0.261059 27:0.431853 28:0.54069 29:0.290718 30:0.532791 31:0.805745 32:0.726041 33:0.427987 34:0.764487 35:0.607698 36:0.899146 37:0.445032 38:0.311524 39:0.400367 40:0.243865 41:0.571141 42:0.556333 43:0.763672 44:0.359011 45:0.554517 46:0.383039 47:0.547958 48:0.815232 49:0.541811 50:0.632283 51:0.50512 52:0.315707 53:0.689386 54:0.162016 55:0.565157 56:0.632126 57:0.205638 58:0.782726 59:0.512219 60:0.553069 61:0.338696 62:0.832601 63:0.612764 64:0.17331 65:0.723506 66:0.776295 67:0.130335 68:0.45488 69:0.0702452 70:0.748707 71:0.40092 72:0.745754 73:0.406876 74:0.485831 75:0.369782 76:0.450157 77:0.950641 78:0.435141 79:0.436412 80:0.3044 81:0.490961 82:0.744072 83:0.30742 84:0.313774 85:0.43283 86:0.216041 87:0.187779 88:0.552076 89:0.370851 90:0.806211 91:0.766948 92:0.550887 93:0.624363 94:0.613342 95:0.815909 96:0.899932 97:0.289661 98:0.658802 99:0.441623 100:0.528101 101:0.626481 102:0.196294 103:0.111404 104:0.353736 105:0.619313 106:0.702836 107:0.46087 108:0.125673 109:0.570153 110:0.694668 111:0.312415 112:0.840733 113:0.9596 114:0.683641 115:0.741397 116:0.350034 117:0.541096 118:0.756365 119:0.454382 120:0.813731 121:0.677244 122:0.55267 123:0.501697 124:0.463984 125:0.357959 126:0.794001 127:0.536389 128:0.112393 
-0 71.14551745875632 0 8.173842550668503 0 0 0 0 0 0 0.0276577511047727 0 0 0 0 0 0 0 0 9.446518114732369 49.95804559428134 0 1:0.340957 2:0.365851 3:0.820987 4:0.869158 5:0.832454 6:0.457354 7:0.431213 8:0.087239 9:0.819272 10:0.456795 11:0.458938 12:0.65749 13:0.259684 14:0.621516 15:0.455281 16:0.748009 17:0.832224 18:0.802828 19:0.198826 20:0.435936 21:0.561547 22:0.448886 23:0.686665 24:0.984209 25:0.749508 26:0.310219 27:0.389801 28:0.537018 29:0.297167 30:0.513984 31:0.801533 32:0.793058 33:0.459328 34:0.800623 35:0.644924 36:0.639162 37:0.46845 38:0.507313 39:0.341277 40:0.276686 41:0.585266 42:0.673319 43:0.662612 44:0.271605 45:0.737989 46:0.262051 47:0.381064 48:0.614254 49:0.602026 50:0.485307 51:0.61141 52:0.301528 53:0.733391 54:0.224291 55:0.558029 56:0.677856 57:0.327122 58:0.737558 59:0.526228 60:0.477853 61:0.474692 62:0.718995 63:0.384575 64:0.288177 65:0.727385 66:0.720222 67:0.219627 68:0.426158 69:0.0945714 70:0.79313 71:0.41145 72:0.593271 73:0.46493 74:0.476053 75:0.323031 76:0.442281 77:0.836856 78:0.459153 79:0.399308 80:0.237064 81:0.385402 82:0.88302 83:0.382732 84:0.274755 85:0.528634 86:0.0742974 87:0.355037 88:0.607281 89:0.311107 90:0.678868 91:0.559749 92:0.519613 93:0.747001 94:0.511948 95:0.786752 96:0.964555 97:0.294173 98:0.574252 99:0.471034 100:0.660878 101:0.707171 102:0.181259 104:0.584134 105:0.803752 106:0.425846 107:0.492071 108:0.0262174 109:0.585955 110:0.564118 111:0.139004 112:0.856027 113:0.843699 114:0.678216 115:0.814623 116:0.383185 117:0.384606 118:0.647615 119:0.372699 120:0.662344 121:0.629608 122:0.787309 123:0.368301 124:0.332555 125:0.454945 126:0.808507 127:0.450445 128:0.0616964 
-18.07350572714492 -0 0 0 0 5.537715274117705 2.545726819115671 0 0 0 0 3.317512619402657 9.99016446663563 0 0 0 0 0 41.22233577816467 0 0 0 1:0.472195 2:0.259857 3:0.902743 4:0.920418 5:0.684835 6:0.750337 7:0.774075 8:0.535398 9:0.829658 10:0.451715 11:0.156656 12:0.544523 13:0.143584 14:0.414602 15:0.713748 16:0.503294 17:0.524599 18:0.263334 19:0.368589 20:0.299564 21:0.404623 22:0.559531 23:0.537987 24:0.747197 25:0.537573 26:0.203524 27:0.151541 28:0.332101 29:0.20101 30:0.286659 31:0.769692 32:0.675252 33:0.145141 34:0.647358 35:0.477427 36:0.583245 37:0.698634 38:0.345625 39:0.192602 40:0.498384 41:0.938169 42:0.586751 43:0.452377 44:0.0787263 45:0.559517 46:0.301212 47:0.278915 48:0.384594 49:0.916068 50:0.576058 51:0.633515 52:0.417146 53:0.719075 54:0.575668 55:0.7186 56:0.441397 57:0.587351 58:0.433026 59:0.730972 60:0.502284 61:0.502307 62:0.767348 64:0.146157 65:0.652047 66:0.595075 67:0.773009 68:0.357982 69:0.461185 70:0.681204 71:0.403865 72:0.905424 73:0.669408 74:0.700626 75:0.504386 76:0.661315 77:0.618713 78:0.604238 79:0.499597 80:0.426802 81:0.442448 82:0.76415 83:0.705143 84:0.568102 85:0.942683 86:0.226381 87:0.660652 88:0.765101 89:0.196158 90:0.463141 91:0.509735 92:0.694279 93:0.745548 94:0.333267 95:0.334745 96:0.653023 97:0.81536 98:0.409766 99:0.469369 100:0.853805 101:0.720849 102:0.307461 103:0.321387 104:0.385098 105:0.63735 106:0.251465 107:0.481444 108:0.147679 109:0.352118 110:0.919791 111:0.225697 112:0.655686 113:0.844209 114:0.200137 115:0.683414 116:0.545097 117:0.554588 118:0.6 119:0.144446 120:0.48391 121:0.623443 122:0.791083 123:0.639005 124:0.329301 125:0.566526 126:0.69725 127:0.443832 128:0.599268 
-10.55463685081671 -0 70.30192809099272 0 0 0 19.14842751384803 8.650405814460228 3.005183788638947 0 7.307283197612194 0 0 18.84095651673788 0 16.31754553294348 0 34.28091855595017 0 0 0 0 1:0.334491 2:0.414836 3:0.799351 4:0.774044 5:0.722109 6:0.650409 7:0.687795 8:0.33447 9:0.621594 10:0.488137 11:3.65733e-05 12:0.526982 13:0.230987 14:0.504395 15:0.62343 16:0.553971 17:0.516768 18:0.388527 19:0.457528 20:0.291866 21:0.403067 22:0.61986 23:0.516636 24:0.696342 25:0.532806 26:0.215166 27:0.149918 28:0.461942 29:0.281514 30:0.555643 31:0.605728 32:0.590398 33:0.231235 34:0.394959 35:0.675256 36:0.394334 37:0.699178 38:0.273539 39:0.33088 40:0.454325 41:0.743182 42:0.632088 43:0.72045 44:0.131919 45:0.587399 46:0.421713 47:0.509786 48:0.45455 49:0.794953 50:0.573771 51:0.689159 52:0.35488 53:0.845301 54:0.613099 55:0.681119 56:0.454467 57:0.683761 58:0.466924 59:0.771105 60:0.446948 61:0.629694 62:0.925452 63:0.0493819 64:0.299088 65:0.578737 66:0.618499 67:0.582309 68:0.269338 69:0.369396 70:0.46418 71:0.486642 72:0.774849 73:0.723207 74:0.586808 75:0.541118 76:0.87224 77:0.519035 78:0.394906 79:0.60779 80:0.430075 81:0.626986 82:0.774756 83:0.668771 84:0.751173 85:0.893621 86:0.307341 87:0.431192 88:0.656366 89:0.223951 90:0.537594 91:0.320613 92:0.74652 93:0.79922 94:0.362674 95:0.279789 96:0.621359 97:0.718874 98:0.707064 99:0.464525 100:0.783413 101:0.865706 102:0.434083 103:0.523595 104:0.381649 105:0.500613 106:0.266821 107:0.47948 108:0.236584 109:0.305533 110:1 111:0.440042 112:0.441741 113:0.86574 114:0.281151 115:0.354041 116:0.674555 117:0.455449 118:0.847961 119:0.0166797 120:0.400745 121:0.553829 122:0.583526 123:0.562203 125:0.414476 126:0.839299 127:0.27462 128:0.514281 
-0 -99.05566554213294 16.04789958452853 0 0 29.15630236553323 0 0 0 0 0 0 47.85371635094565 24.6005372802931 1.533311062363483 39.26063847557212 0 0 3.303392729792509 0 16.2627707358927 36.65579192206877 1:0.46122 2:0.166586 3:0.433532 4:0.915645 5:0.851641 6:0.739367 7:0.446592 8:0.122546 9:0.508244 10:0.471339 11:0.299634 12:0.755423 13:0.371884 14:0.55657 15:0.595224 16:0.684813 17:0.695677 18:0.46492 19:0.608917 20:0.537461 21:0.445876 22:0.389248 23:0.704859 24:0.923191 25:0.692574 26:0.461412 27:0.252039 28:0.0027548 29:0.0264791 30:0.552223 31:0.784629 32:0.877836 33:0.295488 34:0.637205 35:0.513867 36:0.950833 37:0.492014 38:0.284946 39:0.409081 40:0.345933 41:0.740935 42:0.52172 43:0.551935 44:0.265744 45:0.534477 46:0.444542 47:0.740321 48:0.564243 49:0.629426 50:0.471427 51:0.567062 52:0.195044 53:0.923052 54:0.321713 55:0.744313 56:0.672273 57:0.47914 58:0.747501 59:0.705876 60:0.558956 61:0.498269 62:0.90487 63:0.426676 64:0.0959269 65:0.7883 66:0.638409 67:0.447151 68:0.498095 69:0.358992 70:0.579305 71:0.295317 72:0.832972 73:0.247171 74:0.498437 75:0.444522 76:0.67382 77:0.649318 78:0.52761 79:0.476139 80:0.496009 81:0.383451 82:0.775802 83:0.334303 84:0.332038 85:0.451955 86:0.3369 87:0.545747 88:0.510453 89:0.161764 90:0.423401 91:0.597864 92:0.792851 93:0.805879 94:0.560821 95:0.469455 96:0.900727 97:0.564248 98:0.598578 99:0.591836 100:0.590872 101:0.713813 102:0.204331 103:0.132365 104:0.414173 105:0.558615 106:0.51221 107:0.301378 108:0.167493 109:0.257763 110:0.925486 111:0.225824 112:0.689144 113:0.889987 114:0.100229 115:0.597295 116:0.620231 117:0.372361 118:0.442542 119:0.235701 120:0.682187 121:0.688144 122:0.556948 123:0.560029 124:0.353703 125:0.254871 126:0.985073 127:0.269493 128:0.393091 
-0 -0 0 0 0 0 0 0 0 0 23.90940604675355 0 0 10.23051955735228 0 0 0 0 0 0 0 0 1:0.45561 2:0.193772 3:0.661771 4:0.869946 5:0.667424 6:0.743151 7:0.577606 8:0.354233 9:0.716708 10:0.411097 11:0.164437 12:0.639947 13:0.178374 14:0.450648 15:0.55541 16:0.640997 17:0.588294 18:0.407682 19:0.529777 20:0.263601 21:0.50029 22:0.588151 23:0.549699 24:0.820858 25:0.562268 26:0.367967 27:0.316439 28:0.0703227 29:0.0764811 30:0.476166 31:0.713094 32:0.683267 33:0.286312 34:0.523324 35:0.573768 36:0.612141 37:0.628226 38:0.257516 39:0.337007 40:0.498849 41:0.779044 42:0.605699 43:0.524899 44:0.222011 45:0.644553 46:0.41276 47:0.551591 48:0.24766 49:0.726837 50:0.443661 51:0.698785 52:0.293183 53:0.916785 54:0.543341 55:0.680451 56:0.64974 57:0.723626 58:0.532995 59:0.79064 60:0.519522 61:0.628848 62:0.795423 63:0.137417 64:0.185024 65:0.718851 66:0.476675 67:0.604313 68:0.425575 69:0.514579 70:0.626371 71:0.387102 72:0.726492 73:0.418534 74:0.407876 75:0.464573 76:0.795573 77:0.478654 78:0.587114 79:0.38002 80:0.45513 81:0.407877 82:0.84461 83:0.557849 84:0.537681 85:0.706045 86:0.37976 87:0.63613 88:0.524101 89:0.0331625 90:0.390756 91:0.339493 92:0.726118 93:0.667156 94:0.410968 95:0.372615 96:0.873768 97:0.734829 98:0.547903 99:0.552 100:0.837369 101:0.783434 102:0.297989 103:0.262039 104:0.449955 105:0.626019 106:0.167784 107:0.396413 108:0.129797 109:0.115507 110:0.885358 111:0.218571 112:0.500697 113:0.902205 114:0.0153397 115:0.602317 116:0.700006 117:0.341184 118:0.467433 119:0.124727 120:0.459538 121:0.676872 122:0.66049 123:0.601695 124:0.13202 125:0.505575 126:0.855337 127:0.304349 128:0.580068 
-6.989630228798962 -0 0 40.39096197313352 0 0 0 0 0 0 0 39.79862255987165 0 0 0 0 0 0 0 0 0 0 1:0.318276 2:0.436122 3:0.818694 4:0.787777 5:0.756475 6:0.675548 7:0.840546 8:0.428174 9:0.837988 10:0.484502 11:0.0288642 12:0.587482 13:0.180532 14:0.439169 15:0.576933 16:0.573023 17:0.491959 18:0.298791 19:0.324476 20:0.221707 21:0.43612 22:0.630131 23:0.530449 24:0.728683 25:0.493046 26:0.186459 27:0.212232 28:0.409973 29:0.378284 30:0.523193 31:0.668172 32:0.661216 33:0.218942 34:0.486772 35:0.506655 36:0.327855 37:0.743661 38:0.360036 39:0.20017 40:0.574658 41:0.856524 42:0.640406 43:0.603926 44:0.150158 45:0.565025 46:0.389597 47:0.389738 48:0.34216 49:0.880958 50:0.518111 51:0.731007 52:0.429419 53:0.734322 54:0.551828 55:0.699108 56:0.51595 57:0.670066 58:0.505576 59:0.716782 60:0.505735 61:0.550986 62:0.75216 63:0.0405386 64:0.219464 65:0.689657 66:0.510915 67:0.630992 68:0.307502 69:0.406813 70:0.622587 71:0.454811 72:0.855147 73:0.66693 74:0.616512 75:0.552097 76:0.87885 77:0.58885 78:0.580443 79:0.465777 80:0.36401 81:0.543527 82:0.808545 83:0.738861 84:0.791195 85:0.95426 86:0.216217 87:0.587279 88:0.718123 89:0.165873 90:0.483555 91:0.265732 92:0.611247 93:0.681281 94:0.301299 95:0.366819 96:0.641891 97:0.780076 98:0.547513 99:0.556279 100:0.915604 101:0.802021 102:0.348214 103:0.420514 104:0.550913 105:0.508077 106:0.128989 107:0.391329 108:0.212761 109:0.315058 110:0.882844 111:0.350556 112:0.557156 113:0.824708 114:0.290641 115:0.498784 116:0.659343 117:0.447291 118:0.763599 119:0.0600424 120:0.505502 121:0.595457 122:0.804387 123:0.534285 124:0.109396 125:0.50757 126:0.812941 127:0.223899 128:0.511771 
-0 -40.61341358381291 0 0 12.08203101224996 0 0 0 12.00762610953038 0 0 0 2.519366926935755 0 0 0 0 39.89684934714521 2.642231435093156 0 20.20975909820142 0 1:0.292511 2:0.354593 3:0.9682 4:0.949686 5:0.658464 6:0.489246 7:0.679023 8:0.267192 9:0.92172 10:0.335814 11:0.104309 12:0.618022 13:0.0912053 14:0.509517 15:0.450738 16:0.550972 17:0.55625 18:0.298706 19:0.282948 20:0.325237 21:0.428314 22:0.517742 23:0.499159 24:0.798566 25:0.58851 26:0.255821 27:0.194192 28:0.527433 29:0.332279 30:0.414001 31:0.722218 32:0.697852 33:0.228403 34:0.466858 35:0.475003 36:0.394206 37:0.589865 38:0.486381 39:0.216965 40:0.497786 41:0.816506 42:0.696416 43:0.494828 45:0.776713 46:0.372142 47:0.237087 48:0.324537 49:0.894207 50:0.458997 51:0.608904 52:0.488323 53:0.864661 54:0.459129 55:0.658476 56:0.424501 57:0.586125 58:0.538899 59:0.647912 60:0.499474 61:0.606494 62:0.824805 63:0.0490028 64:0.32608 65:0.629531 66:0.658797 67:0.682803 68:0.319843 69:0.348107 70:0.63233 71:0.451088 72:0.747125 73:0.709894 74:0.693633 75:0.59638 76:0.763558 77:0.619412 78:0.437363 79:0.461895 80:0.424807 81:0.456518 82:0.82425 83:0.667223 84:0.589518 85:0.930094 86:0.136091 87:0.533169 88:0.765547 89:0.117843 90:0.393896 91:0.351127 92:0.701287 93:0.910687 94:0.432883 95:0.426705 96:0.652092 97:0.749345 98:0.441115 99:0.61692 100:0.804849 101:0.763465 102:0.259201 103:0.216263 104:0.566253 105:0.64193 106:0.213938 107:0.589124 108:0.196238 109:0.413717 110:0.79686 111:0.297017 112:0.649926 113:0.832637 114:0.379154 115:0.577403 116:0.604758 117:0.288717 118:0.819668 119:0.143564 120:0.46177 121:0.442459 122:0.881184 123:0.39369 124:0.058234 125:0.525167 126:0.941299 127:0.272709 128:0.407972 
-0 -0 0 0 0 0 0 25.67264988438676 32.68116557775886 0 0 0 0 0 0 0 0 0 0 0 0 0 1:0.358384 2:0.206868 3:0.690146 4:0.922802 5:0.714566 6:0.628238 7:0.551987 8:0.259317 9:0.784451 10:0.35827 11:0.169035 12:0.75269 13:0.094783 14:0.513073 15:0.44082 16:0.619052 17:0.591319 18:0.398533 19:0.533391 20:0.282461 21:0.470565 22:0.569736 23:0.541818 24:0.771618 25:0.619053 26:0.393629 27:0.34325 28:0.236476 29:0.116051 30:0.494994 31:0.696416 32:0.708796 33:0.333441 34:0.456583 35:0.515148 36:0.540965 37:0.617294 38:0.277309 39:0.35568 40:0.537909 41:0.835623 42:0.688931 43:0.557901 44:0.161962 45:0.617412 46:0.362101 47:0.498669 48:0.166026 49:0.875065 50:0.425765 51:0.682015 52:0.366258 53:0.895478 54:0.569415 55:0.679965 56:0.601072 57:0.728739 58:0.526909 59:0.668034 60:0.572963 61:0.630887 62:0.762097 63:0.144585 64:0.234844 65:0.726858 66:0.499142 67:0.622217 68:0.364894 69:0.489906 70:0.662542 71:0.414474 72:0.764221 73:0.534675 74:0.514116 75:0.506928 76:0.829185 77:0.531813 78:0.533561 79:0.315198 80:0.410122 81:0.388325 82:0.902987 83:0.687724 84:0.637005 85:0.762748 86:0.314211 87:0.640508 88:0.621609 89:0.0344072 90:0.290843 91:0.27269 92:0.743288 93:0.742551 94:0.434155 95:0.443261 96:0.744375 97:0.71172 98:0.541796 99:0.574994 100:0.831756 101:0.6957 102:0.254995 103:0.303621 104:0.531057 105:0.682367 106:0.191836 107:0.49572 108:0.159701 109:0.15517 110:0.883144 111:0.191313 112:0.467772 113:0.912622 114:0.159212 115:0.545342 116:0.624267 117:0.389552 118:0.559873 119:0.15309 120:0.45935 121:0.623597 122:0.767164 123:0.523115 124:0.0217626 125:0.484276 126:0.920877 127:0.288533 128:0.658835 
-0 -0 0 0 0 0 4.918656122292293 0 0 0 0 0 47.74941641415362 0 0 0 0 0 0 0 0 0 1:0.300392 2:0.392842 3:0.853839 4:0.903978 5:0.7135 6:0.626397 7:0.698991 8:0.295396 9:0.8584 10:0.421525 11:0.0618159 12:0.615001 13:0.0799328 14:0.474932 15:0.546833 16:0.51034 17:0.515197 18:0.222103 19:0.342906 20:0.284293 21:0.314765 22:0.499367 23:0.652777 24:0.808267 25:0.643954 26:0.222469 27:0.266202 28:0.483496 29:0.333015 30:0.330749 31:0.78369 32:0.69126 33:0.151749 34:0.512873 35:0.363554 36:0.439217 37:0.591852 38:0.442578 39:0.236522 40:0.597964 41:0.899443 42:0.601583 43:0.450222 44:0.0256638 45:0.620017 46:0.369072 47:0.266841 48:0.413652 49:0.903841 50:0.510462 51:0.63629 52:0.490144 53:0.823961 54:0.384582 55:0.620926 56:0.450348 57:0.611488 58:0.615046 59:0.687597 60:0.520773 61:0.497509 62:0.863857 63:0.131597 64:0.216655 65:0.652547 66:0.672444 67:0.706286 68:0.355936 69:0.343324 70:0.677006 71:0.364877 72:0.89419 73:0.649525 74:0.786256 75:0.658936 76:0.730927 77:0.631494 78:0.470739 79:0.461118 80:0.446374 81:0.42478 82:0.775764 83:0.720191 84:0.592897 85:0.873177 86:0.126156 87:0.568797 88:0.755263 89:0.126755 90:0.333259 91:0.385393 92:0.696525 93:0.938307 94:0.410313 95:0.465363 96:0.608384 97:0.785702 98:0.437797 99:0.633659 100:0.770802 101:0.679739 102:0.211524 103:0.214194 104:0.631572 105:0.590692 106:0.225271 107:0.485318 108:0.219133 109:0.381228 110:0.820282 111:0.374984 112:0.778048 113:0.934523 114:0.385932 115:0.552802 116:0.562268 117:0.317792 118:0.844752 119:0.215759 120:0.559221 121:0.533075 122:0.803476 123:0.38747 124:0.119419 125:0.464249 126:0.905953 127:0.162225 128:0.429516 
-0 -0 0 11.08812072178428 0 8.126997770858729 5.350616826801034 0 14.89575042564867 71.56926710871281 15.18260760980223 0 0 19.38659537137989 0 0 0 5.792615414922115 59.20128448937863 19.69094743658669 0 50.91433417181301 1:0.467307 2:0.448944 3:0.57951 4:0.727302 5:0.480687 6:0.832711 7:0.826252 8:0.370029 9:0.54032 10:0.548166 11:0.135593 12:0.494688 13:0.469652 14:0.42233 15:0.733012 16:0.415802 17:0.369908 18:0.176384 19:0.50763 20:0.229951 21:0.356025 22:0.579845 23:0.449765 24:0.739736 25:0.48809 26:0.266785 27:0.205212 28:0.18629 29:0.233788 30:0.681705 31:0.667339 32:0.632113 33:0.148328 34:0.55002 35:0.535389 36:0.459275 37:0.711919 38:0.276865 39:0.390151 40:0.612507 41:0.791895 42:0.323025 43:0.579015 44:0.342571 45:0.454867 46:0.413559 47:0.587708 48:0.514585 49:0.734029 50:0.545111 51:0.74461 52:0.377538 53:0.836426 54:0.63286 55:0.703581 56:0.570762 57:0.58601 58:0.58714 59:0.829967 60:0.458788 61:0.464202 62:0.796449 63:0.196199 64:0.189373 65:0.576566 66:0.538246 67:0.781562 68:0.260681 69:0.406123 70:0.34648 71:0.328309 72:0.788282 73:0.493048 74:0.57744 75:0.626406 76:0.787597 77:0.471221 78:0.389617 79:0.601944 80:0.73188 81:0.605433 82:0.515511 83:0.690283 84:0.680608 85:0.701958 86:0.338517 87:0.632774 88:0.382774 89:0.205861 90:0.45983 91:0.251043 92:0.520421 93:0.813947 94:0.332675 95:0.0593317 96:0.59102 97:0.781761 98:0.581859 99:0.642813 100:0.773044 101:0.821583 102:0.591976 103:0.485848 104:0.579854 105:0.408788 106:0.201267 107:0.283182 108:0.445424 109:0.187288 110:0.9753 111:0.511824 112:0.485686 113:0.662479 114:0.112584 115:0.290242 116:0.844504 117:0.50119 118:0.750379 119:0.107774 120:0.549203 121:0.691845 122:0.35435 123:0.547943 124:0.203777 125:0.450739 126:0.73462 127:0.188986 128:0.65438 
-3.308284045213409 -0 0 0 0 0 3.043356215721947 0 0 0 0 0 0 0 0 0 23.09917570564093 0 0 0 0 0 1:0.265068 2:0.40609 3:0.874188 4:0.854957 5:0.619161 6:0.672901 7:0.748339 8:0.416186 9:0.89566 10:0.432974 11:0.0492986 12:0.536578 13:0.183188 14:0.397999 15:0.571627 16:0.530307 17:0.419108 18:0.270941 19:0.326767 20:0.234784 21:0.474373 22:0.545859 23:0.553849 24:0.713379 25:0.53653 26:0.192001 27:0.118714 28:0.321313 29:0.32348 30:0.452483 31:0.771431 32:0.634989 33:0.233942 34:0.464877 35:0.543294 36:0.382268 37:0.692724 38:0.42685 39:0.262351 40:0.557055 41:0.84061 42:0.607499 43:0.505628 44:0.0979493 45:0.632347 46:0.321949 47:0.349449 48:0.311246 49:0.910279 50:0.507531 51:0.623981 52:0.452484 53:0.828509 54:0.588429 55:0.653553 56:0.468897 57:0.732675 58:0.445327 59:0.70873 60:0.424793 61:0.5237 62:0.779743 63:0.0358866 64:0.233937 65:0.630335 66:0.562031 67:0.748608 68:0.312136 69:0.428823 70:0.560599 71:0.472642 72:0.828413 73:0.649206 74:0.641158 75:0.596887 76:0.796249 77:0.458685 78:0.486579 79:0.503072 80:0.498904 81:0.454515 82:0.778297 83:0.750443 84:0.762417 85:0.926172 86:0.276962 87:0.601752 88:0.726489 89:0.171435 90:0.344255 91:0.276976 92:0.637448 93:0.831718 94:0.314231 95:0.291351 96:0.561463 97:0.739075 98:0.562325 99:0.496932 100:0.890241 101:0.809268 102:0.30798 103:0.329417 104:0.544411 105:0.609062 106:0.171584 107:0.514264 108:0.242193 109:0.365883 110:0.904304 111:0.26976 112:0.548626 113:0.769959 114:0.253203 115:0.510121 116:0.728168 117:0.391049 118:0.761632 119:0.10054 120:0.473582 121:0.5699 122:0.764888 123:0.490169 124:0.11172 125:0.512972 126:0.811268 127:0.276349 128:0.640779 
-0 -0 0 0 0 0 17.42992647848647 13.27402029556958 0 0 27.2857880435873 2.282639585499351 0 0 0 0 22.00122830675205 0 0 0 0 0 1:0.767168 2:0.166165 3:0.507644 4:0.854793 5:0.847113 6:0.889532 7:0.758354 8:0.253736 9:0.627414 10:0.28508 11:0.229094 12:0.704533 13:0.264134 14:0.458639 15:0.6357 16:0.505827 17:0.476263 18:0.357737 19:0.519536 20:0.277701 21:0.494865 22:0.698917 23:0.621664 24:0.811423 25:0.621652 26:0.307191 27:0.285525 28:0.00887136 29:0.0661869 30:0.65917 31:0.725816 32:0.774948 33:0.0878797 34:0.644944 35:0.593024 36:0.608156 37:0.49604 38:0.184595 39:0.409685 40:0.513122 41:0.841964 42:0.522356 43:0.42722 44:0.402163 45:0.369095 46:0.461544 47:0.465417 48:0.461923 49:0.777852 50:0.532463 51:0.713938 52:0.407288 53:0.898158 54:0.471964 55:0.671636 56:0.491428 57:0.617327 58:0.706308 59:0.682236 60:0.617343 61:0.55092 62:0.799811 63:0.347198 64:0.1876 65:0.640542 66:0.3933 67:0.657294 68:0.450359 69:0.48326 70:0.675671 71:0.382322 72:0.874508 73:0.396686 74:0.492182 75:0.314116 76:0.694023 77:0.500264 78:0.37031 79:0.38677 80:0.686682 81:0.588107 82:0.743738 83:0.594636 84:0.479535 85:0.683187 86:0.214738 87:0.702221 88:0.40191 89:0.0102092 90:0.465437 91:0.575305 92:0.668729 93:0.570477 94:0.453483 95:0.274989 96:0.753347 97:0.707783 98:0.469903 99:0.668114 100:0.733108 101:0.876379 102:0.480438 103:0.414373 104:0.4836 105:0.466874 106:0.177595 107:0.283375 108:0.302209 109:0.203813 110:0.998969 111:0.555025 112:0.548244 113:0.684476 114:0.0816366 115:0.552517 116:0.806225 117:0.487067 118:0.525085 119:0.209444 120:0.664081 121:0.768726 122:0.576931 123:0.581981 124:0.254608 125:0.448276 126:0.73393 127:0.367619 128:0.612424 
-28.46532977193937 -59.82996637416403 0 41.91729973216582 0 0 47.69880463568111 48.23194069846973 0 4.438891901483459 32.23796211558254 128 82.61186835016795 15.86116226948075 128 56.72952523199811 25.24615275160743 8.68102782491445 6.398231841811376 53.51409334476972 1.971346750872785 17.5600837920195 1:0.517982 2:0.325285 3:0.499182 4:0.693673 5:0.849336 6:0.919249 7:0.657084 8:0.160644 9:0.431273 10:0.398308 11:0.278371 12:0.716697 13:0.368354 14:0.590841 15:0.625049 16:0.595539 17:0.460147 18:0.568002 19:0.446151 20:0.267625 21:0.490981 22:0.580159 23:0.913312 24:0.789554 25:0.548529 26:0.318229 27:0.30689 28:0.107979 29:0.0534412 30:0.617495 31:0.67554 32:0.71626 33:0.21976 34:0.752649 35:0.5863 36:0.725817 37:0.448226 38:0.281335 39:0.391712 40:0.607286 41:0.721374 42:0.580597 43:0.594662 44:0.415501 45:0.221989 46:0.421832 47:0.695875 48:0.503725 49:0.525673 50:0.659232 51:0.674181 52:0.240845 53:0.693147 54:0.573803 55:0.654438 56:0.667783 57:0.663723 58:0.902559 59:0.613389 60:0.606599 61:0.427723 62:0.92699 63:0.574215 64:0.0989417 65:0.842995 66:0.507778 67:0.363723 68:0.501985 69:0.265026 70:0.838317 71:0.460128 72:0.902155 73:0.4461 74:0.601343 75:0.391846 76:0.683155 77:0.522252 78:0.300781 79:0.403515 80:0.379671 81:0.473834 82:0.729338 83:0.505268 84:0.459457 85:0.212462 86:0.314247 87:0.609989 88:0.341665 89:0.121429 90:0.55861 91:0.631448 92:0.443102 93:0.703658 94:0.254837 95:0.541935 96:0.836566 97:0.458019 98:0.758603 99:0.566628 100:0.858624 101:0.664622 102:0.409248 103:0.300236 104:0.591914 105:0.602133 106:0.360454 107:0.107199 108:0.278415 109:0.210166 110:0.787875 111:0.432512 112:0.667631 113:0.881149 114:0.288538 115:0.558077 116:0.765417 117:0.661437 118:0.604852 119:0.375615 120:0.807144 121:0.881402 122:0.409472 123:0.557845 124:0.298218 125:0.305957 126:0.802165 127:0.291621 128:0.522428 
-3.052935023126733 -0 0 0 0 11.40615836578211 0 0 0 0 0 0 0 0 0 0 0 5.021165458126892 0 10.07775891906159 0 0 1:0.373059 2:0.445613 3:0.854252 4:0.923022 5:0.6397 6:0.654936 7:0.789765 8:0.419438 9:0.962579 10:0.467638 11:0.16604 12:0.53001 13:0.223641 14:0.40868 15:0.604139 16:0.616245 17:0.568159 18:0.271542 19:0.258479 20:0.316933 21:0.432675 22:0.548274 23:0.566924 24:0.826963 25:0.489256 26:0.149913 27:0.136873 28:0.383367 29:0.414575 30:0.453875 31:0.805479 32:0.752692 33:0.236086 34:0.607654 35:0.430079 36:0.458609 37:0.792763 38:0.484175 39:0.225272 40:0.601849 41:0.83661 42:0.60708 43:0.499291 44:0.0387054 45:0.66687 46:0.268912 47:0.330004 48:0.396342 49:0.952997 50:0.566138 51:0.663681 52:0.470551 53:0.73849 54:0.547998 55:0.662365 56:0.479469 57:0.643204 58:0.465145 59:0.728575 60:0.48054 61:0.396361 62:0.720247 63:0.0388246 64:0.0988986 65:0.610433 66:0.573024 67:0.788617 68:0.247897 69:0.339131 70:0.596527 71:0.378648 72:0.851485 73:0.591543 74:0.763266 75:0.599057 76:0.67483 77:0.677852 78:0.601338 79:0.460157 80:0.444097 81:0.49334 82:0.777832 83:0.699909 84:0.655734 85:0.995344 86:0.256403 87:0.536373 88:0.68825 89:0.19651 90:0.39934 91:0.344562 92:0.57065 93:0.790054 94:0.342524 95:0.435093 96:0.624164 97:0.739485 98:0.495401 99:0.505355 100:0.883806 101:0.726229 102:0.261441 103:0.254102 104:0.680774 105:0.602225 106:0.209525 107:0.515727 108:0.176487 109:0.449796 110:0.870636 111:0.156861 112:0.690224 113:0.813138 114:0.338152 115:0.553312 116:0.613971 117:0.497024 118:0.717149 119:0.111075 120:0.552122 121:0.569776 122:0.867357 123:0.543782 124:0.287731 125:0.491639 126:0.769127 127:0.280832 128:0.521152 
-0 -0 0 0 0 0 0 0 0 0 0 0 0 10.79275795518059 0 5.748543311676742 0 0 0 0 14.74881440275219 19.51262183842264 1:0.497152 2:0.266658 3:0.619317 4:0.716605 5:0.618742 6:0.626362 7:0.739844 8:0.331031 9:0.389264 10:0.499735 11:0.0805738 12:0.513047 13:0.501475 14:0.685271 15:0.607959 16:0.521857 17:0.62107 18:0.568628 19:0.528794 20:0.359283 21:0.458825 22:0.51519 23:0.646061 24:0.916331 25:0.44266 26:0.277023 27:0.299666 28:0.246568 29:0.0986893 30:0.679317 31:0.450465 32:0.631833 33:0.278164 34:0.584963 35:0.64082 36:0.418269 37:0.684719 38:0.377555 39:0.271634 40:0.394771 41:0.583037 42:0.580529 43:0.76521 44:0.314174 45:0.461915 46:0.399848 47:0.685081 48:0.513013 49:0.603863 50:0.599276 51:0.737545 52:0.112831 53:0.90851 54:0.725745 55:0.751175 56:0.634239 57:0.709245 58:0.680336 59:0.946198 60:0.365986 61:0.686738 62:0.958335 63:0.189291 64:0.243604 65:0.596431 66:0.673775 67:0.470207 68:0.256143 69:0.310229 70:0.389253 71:0.26431 72:0.63571 73:0.569674 74:0.529238 75:0.478666 76:0.762032 77:0.635907 78:0.362527 79:0.699244 80:0.395014 81:0.586117 82:0.648454 83:0.393511 84:0.406537 85:0.656988 86:0.343487 87:0.416094 88:0.430545 89:0.28398 90:0.586774 91:0.464403 92:0.613741 93:0.853038 94:0.197109 95:0.335845 96:0.859834 97:0.578369 98:0.85302 99:0.651336 100:0.770972 101:0.893027 102:0.49876 103:0.594604 104:0.567552 105:0.495937 106:0.201266 107:0.209614 108:0.218133 109:0.181432 110:0.825537 111:0.438399 112:0.596154 113:0.900237 114:0.157468 115:0.312563 116:0.772278 117:0.578879 118:0.645974 119:0.0588803 120:0.426093 121:0.584556 122:0.413467 123:0.524539 124:0.115598 125:0.254709 126:0.791014 127:0.104354 128:0.338853 
-0 -0 0 0 6.917769352818423 0 0 0 0 0 0 0 0 0 0 0 0 0 0 0 15.44189025522362 0 1:0.287171 2:0.174582 3:0.877938 4:1 5:0.609058 6:0.587766 7:0.610184 8:0.283073 9:0.699335 10:0.41217 11:0.155143 12:0.733324 13:0.121129 14:0.381577 15:0.565743 16:0.509318 17:0.451501 18:0.382842 19:0.497231 20:0.344051 21:0.418388 22:0.449473 23:0.588222 24:0.800242 25:0.604808 26:0.423694 27:0.241377 28:0.0726744 29:0.0460673 30:0.379669 31:0.718162 32:0.758527 33:0.307751 34:0.554928 35:0.558596 36:0.523277 37:0.547264 38:0.37146 39:0.268311 40:0.430718 41:0.924208 42:0.469839 43:0.441346 44:0.169636 45:0.530667 46:0.43378 47:0.499322 48:0.227752 49:0.718698 50:0.40267 51:0.662266 52:0.333706 53:0.933205 54:0.480914 55:0.734247 56:0.570609 57:0.680579 58:0.481569 59:0.711529 60:0.551277 61:0.646567 62:0.772003 63:0.0560763 64:0.300663 65:0.835704 66:0.561662 67:0.614708 68:0.332278 69:0.473682 70:0.641348 71:0.30895 72:0.734458 73:0.531139 74:0.571913 75:0.556223 76:0.724813 77:0.440727 78:0.545056 79:0.449242 80:0.521667 81:0.288023 82:0.761808 83:0.56835 84:0.509345 85:0.710812 86:0.222772 87:0.721131 88:0.64537 89:0.0221442 90:0.339076 91:0.368831 92:0.822695 93:0.850889 94:0.353114 95:0.241963 96:0.752101 97:0.758376 98:0.478798 99:0.680528 100:0.725939 101:0.759467 102:0.29002 103:0.254906 104:0.4371 105:0.792288 106:0.15677 107:0.545237 108:0.278731 109:0.253653 110:0.85902 111:0.1634 112:0.602886 113:0.822408 114:0.00368234 115:0.6195 116:0.59363 117:0.3063 118:0.48148 119:0.209438 120:0.501315 121:0.639869 122:0.742793 123:0.398136 124:0.14629 125:0.559497 126:0.922975 127:0.358389 128:0.581809 
-0 -0 0 0 0 0 0 0 0 0 0 0 0 0 36.54048182789117 0 0 0 0 8.14751643011858 0 0 1:0.420271 2:0.407401 3:0.561319 4:0.866403 5:0.577124 6:0.778932 7:0.749685 8:0.298863 9:0.681814 10:0.591578 11:0.220473 12:0.540304 13:0.495965 14:0.405248 15:0.690447 16:0.651136 17:0.541094 18:0.318424 19:0.446181 20:0.325894 21:0.46273 22:0.435999 23:0.695747 24:0.879148 25:0.547754 26:0.215597 27:0.149076 28:0.00973346 29:0.257409 30:0.654116 31:0.834604 32:0.800504 33:0.273743 34:0.643803 35:0.487397 36:0.548561 37:0.738734 38:0.423777 39:0.433717 40:0.61412 41:0.727594 42:0.394644 43:0.534725 44:0.193821 45:0.535891 46:0.316071 47:0.599533 48:0.487286 49:0.774553 50:0.511546 51:0.720035 52:0.304305 53:0.857289 54:0.534259 55:0.629623 56:0.65708 57:0.712659 58:0.602459 59:0.792979 60:0.511599 61:0.373054 62:0.765004 63:0.183738 65:0.721598 66:0.540076 67:0.687707 68:0.296737 69:0.303159 70:0.420996 71:0.267997 72:0.836788 73:0.258873 74:0.600779 75:0.605233 76:0.702797 77:0.616253 78:0.519913 79:0.509781 80:0.658856 81:0.43187 82:0.579717 83:0.584996 84:0.614318 85:0.643241 86:0.412161 87:0.580958 88:0.390545 89:0.141584 90:0.298766 91:0.252554 92:0.512535 93:0.868902 94:0.380051 95:0.282894 96:0.684923 97:0.627172 98:0.644487 99:0.563831 100:0.853312 101:0.795932 102:0.329211 103:0.180538 104:0.789852 105:0.634019 106:0.22398 107:0.381106 108:0.317753 109:0.321575 110:0.899086 111:0.100925 112:0.605358 113:0.787085 114:0.158186 115:0.418032 116:0.836258 117:0.445334 118:0.70309 119:0.110696 120:0.707028 121:0.652005 122:0.529422 123:0.442749 124:0.321355 125:0.376737 126:0.827859 127:0.100422 128:0.585576 
-0 -0 0 0 0 0 0 0 0 50.13158440798437 0 0 0 0 0 0 14.54892179209766 0 0 0 0 0 1:0.259495 2:0.234303 3:0.736005 4:0.931432 5:0.712411 6:0.643839 7:0.546089 8:0.220594 9:0.735084 10:0.378321 11:0.159756 12:0.770109 13:0.0627013 14:0.473859 15:0.48247 16:0.608031 17:0.51063 18:0.331847 19:0.529124 20:0.283981 21:0.403312 22:0.517994 23:0.568023 24:0.738941 25:0.657789 26:0.430211 27:0.288445 28:0.236706 29:0.141388 30:0.401818 31:0.743209 32:0.708465 33:0.280684 34:0.436393 35:0.483102 36:0.598724 37:0.548583 38:0.288524 39:0.374487 40:0.573062 41:0.916264 42:0.645876 43:0.524409 44:0.131335 45:0.585695 46:0.394564 47:0.517165 48:0.184642 49:0.827436 50:0.406319 51:0.621486 52:0.371319 53:0.876164 54:0.507417 55:0.674781 56:0.58474 57:0.688742 58:0.576957 59:0.624568 60:0.606471 61:0.570338 62:0.816741 63:0.184639 64:0.241316 65:0.788237 66:0.566498 67:0.626319 68:0.386708 69:0.476397 70:0.670636 71:0.433499 72:0.840284 73:0.575461 74:0.60102 75:0.605611 76:0.819679 77:0.460507 78:0.512587 79:0.325958 80:0.428633 81:0.355239 82:0.872924 83:0.716442 84:0.634845 85:0.653501 86:0.316191 87:0.691864 88:0.649756 90:0.236448 91:0.314516 92:0.778494 93:0.822407 94:0.416295 95:0.429209 96:0.70676 97:0.729495 98:0.519892 99:0.583874 100:0.804494 101:0.608743 102:0.204987 103:0.253447 104:0.504042 105:0.695907 106:0.266642 107:0.52678 108:0.234654 109:0.191103 110:0.869547 111:0.213359 112:0.526455 113:0.926947 114:0.156327 115:0.56254 116:0.60591 117:0.324498 118:0.617565 119:0.204302 120:0.497027 121:0.632239 122:0.726327 123:0.477663 124:0.043876 125:0.465656 126:1 127:0.256189 128:0.662456 
-0 -0 0 0 0 0 0 0 0 0 0 0 0 0 0 0 0 0 0 20.03505002057669 0 0 1:0.548173 2:0.415425 3:0.616795 4:0.888194 5:0.445224 6:0.711667 7:0.899129 8:0.369165 9:0.653334 10:0.487205 11:0.17613 12:0.483584 13:0.437918 14:0.433515 15:0.593249 16:0.571667 17:0.537625 18:0.365824 19:0.423339 20:0.259284 21:0.459492 22:0.505844 23:0.711011 24:0.821634 25:0.366063 26:0.168199 27:0.154249 28:0.0444864 29:0.224541 30:0.657206 31:0.647357 32:0.743247 33:0.259088 34:0.591203 35:0.509488 36:0.296375 37:0.782107 38:0.508706 39:0.331903 40:0.664671 41:0.643988 42:0.530923 43:0.507896 44:0.187529 45:0.496393 46:0.336667 47:0.559649 48:0.290008 49:0.741514 50:0.587473 51:0.773923 52:0.33095 53:0.846322 54:0.747695 55:0.592344 56:0.564656 57:0.878495 58:0.553442 59:0.884084 60:0.487883 61:0.503242 62:0.784879 63:0.130477 64:0.0242264 65:0.694184 66:0.493086 67:0.776402 68:0.181109 69:0.327547 70:0.441296 71:0.291461 72:0.743545 73:0.477536 74:0.707613 75:0.530819 76:0.689411 77:0.587368 78:0.412408 79:0.496923 80:0.567022 81:0.44152 82:0.577386 83:0.512785 84:0.554443 85:0.756954 86:0.400071 87:0.507458 88:0.287537 89:0.114181 90:0.292724 91:0.259934 92:0.468471 93:0.847298 94:0.17155 95:0.347052 96:0.672973 97:0.748026 98:0.694944 99:0.603744 100:1 101:0.77797 102:0.459275 103:0.393297 104:0.862204 105:0.612531 106:0.0525641 107:0.448283 108:0.33561 109:0.278405 110:0.864056 111:0.193782 112:0.570311 113:0.845291 114:0.111307 115:0.367724 116:0.850214 117:0.555549 118:0.669802 119:0.117373 120:0.54245 121:0.547028 122:0.57598 123:0.480359 124:0.239078 125:0.484187 126:0.698123 127:0.117914 128:0.555656 
-0 -0 25.59840062556677 0 68.01121172195622 38.65722133653221 0 18.86945204897118 26.95359946084786 0 0 0 0 0 0 0 0 0 0 0 30.28317412720034 29.39236148381535 1:0.375021 2:0.301729 3:0.592761 4:0.551294 5:0.504448 6:0.763418 7:0.635004 8:0.398879 9:0.515676 10:0.356414 11:0.021816 12:0.45229 13:0.516367 14:0.609225 15:0.637133 16:0.417825 17:0.414774 18:0.387224 19:0.515649 20:0.200379 21:0.525624 22:0.565328 23:0.712524 24:0.75885 25:0.474293 26:0.255718 27:0.3076 28:0.143017 29:0.0640707 30:0.638715 31:0.691263 32:0.46154 33:0.301032 34:0.542037 35:0.672521 36:0.441311 37:0.656272 38:0.37236 39:0.3854 40:0.566224 41:0.601417 42:0.539143 43:0.644628 44:0.406893 45:0.492715 46:0.320097 47:0.613856 48:0.441589 49:0.678531 50:0.59613 51:0.601446 52:0.141931 53:0.96011 54:0.761749 55:0.603842 56:0.649258 57:0.748144 58:0.710152 59:0.804507 60:0.312617 61:0.589545 62:0.941967 63:0.261946 64:0.250963 65:0.559673 66:0.567616 67:0.641479 68:0.349794 69:0.391922 70:0.364421 71:0.358044 72:0.63289 73:0.469315 74:0.428878 75:0.515919 76:0.756508 77:0.391694 78:0.192064 79:0.644778 80:0.618743 81:0.504723 82:0.589587 83:0.568837 84:0.595317 85:0.563843 86:0.369688 87:0.554385 88:0.389926 89:0.246418 90:0.399162 91:0.3809 92:0.470188 93:0.909839 94:0.228607 95:0.266812 96:0.731162 97:0.520688 98:0.871761 99:0.486695 100:0.898991 101:0.782869 102:0.473774 103:0.410364 104:0.604656 105:0.520476 106:0.18056 107:0.194376 108:0.283519 109:0.12033 110:0.834996 111:0.46516 112:0.451788 113:0.722825 114:0.200882 115:0.270169 116:0.974626 117:0.526416 118:0.703969 119:0.142326 120:0.500623 121:0.658946 122:0.348909 123:0.460896 124:0.0840249 125:0.325308 126:0.64142 127:0.0993285 128:0.622286 
-13.91947547870819 -0 0 0 0 0 0 0 0 0 15.30760171749129 0 0 0 0 0 0 0 0 0 0 0 1:0.376373 2:0.573751 3:0.680977 4:0.80368 5:0.46628 6:0.741618 7:0.784414 8:0.390475 9:0.843281 10:0.47684 11:0.0636039 12:0.48784 13:0.253737 14:0.409642 15:0.537431 16:0.527649 17:0.441162 18:0.262079 19:0.355835 20:0.200578 21:0.414498 22:0.604273 23:0.579583 24:0.749162 25:0.396273 26:0.169044 27:0.224839 28:0.288858 29:0.343552 30:0.623671 31:0.642932 32:0.697356 33:0.301961 34:0.535461 35:0.478716 36:0.317775 37:0.84578 38:0.44611 39:0.223026 40:0.6557 41:0.718713 42:0.499663 43:0.556639 44:0.150968 45:0.595433 46:0.383772 47:0.555531 48:0.32869 49:0.772588 50:0.599474 51:0.766852 52:0.51039 53:0.823468 54:0.715651 55:0.686724 56:0.542935 57:0.808276 58:0.448765 59:0.822964 60:0.383875 61:0.473528 62:0.764367 63:0.123458 64:0.118505 65:0.590362 66:0.511183 67:0.791969 68:0.218297 69:0.376892 70:0.574474 71:0.348431 72:0.723764 73:0.538499 74:0.693339 75:0.644992 76:0.789092 77:0.5398 78:0.4809 79:0.459817 80:0.467098 81:0.527528 82:0.757308 83:0.644074 84:0.707232 85:0.937272 86:0.355035 87:0.460156 88:0.5027 89:0.206848 90:0.497056 91:0.217808 92:0.457262 93:0.748494 94:0.241779 95:0.344874 96:0.622754 97:0.789459 98:0.652494 99:0.640615 100:0.907609 101:0.836264 102:0.439457 103:0.439357 104:0.715161 105:0.471001 106:0.107482 107:0.362425 108:0.274612 109:0.249726 110:0.885289 111:0.373037 112:0.592417 113:0.79738 114:0.177572 115:0.395922 116:0.733721 117:0.499744 118:0.668619 119:0.169648 120:0.488924 121:0.673764 122:0.680112 123:0.636192 124:0.129973 125:0.531999 126:0.740508 127:0.275267 128:0.579182 
-0 -0 -0 0 0 46.39505846392021 0 0 0 0 0 0 0 0 0 0 0 0 0 0 0 0 1:0.464206 2:0.550468 3:0.808368 4:0.511973 5:0.5943 6:0.164036 7:0.422206 8:0.36553 9:0.609356 10:0.189051 11:0.49133 12:0.223628 13:0.224066 14:0.57442 15:0.562611 16:0.597173 17:0.617164 18:0.395438 19:0.503067 20:0.418313 21:0.728928 22:0.771655 23:0.448324 24:0.460568 25:0.651049 26:0.464552 27:0.379153 28:0.532998 29:0.765756 30:0.656192 31:0.503115 32:0.233325 33:0.709922 34:0.38552 35:0.954892 36:0.320733 37:0.784787 38:0.574774 39:0.690279 40:0.312555 41:0.407267 42:0.780502 43:0.682701 44:0.578006 45:0.656892 46:0.663627 47:0.611199 48:0.303006 49:0.52149 50:0.422672 51:0.182904 52:0.611806 53:0.722894 54:0.726494 55:0.476518 56:0.246185 57:0.613656 58:0.367191 59:0.288433 60:0.374386 61:0.763083 62:0.5279 63:0.406369 64:0.774444 65:0.358957 66:0.466842 67:0.528465 68:0.359905 69:0.705404 70:0.308307 71:0.635078 72:0.274369 73:0.566788 74:0.338332 75:0.568413 76:0.420046 77:0.260325 78:0.452756 79:0.593178 80:0.581328 81:0.549892 82:0.904798 83:0.533449 84:0.707867 85:0.982721 86:0.343525 87:0.272994 88:0.592173 89:0.373369 90:0.520822 91:0.715261 92:0.622395 93:0.464992 94:0.483558 95:0.441676 96:0.321113 97:0.471566 98:0.811859 99:0.326473 100:0.466427 101:0.47582 102:0.548605 103:0.695349 104:0.303268 105:0.42043 106:0.448112 107:0.87913 108:0.5107 109:0.770573 110:0.616261 111:0.656593 112:0.211117 113:0.269328 114:0.623758 115:0.502072 116:0.693569 117:0.413219 118:0.3222 119:0.194002 120:0.245218 121:0.381482 122:0.873566 123:0.411597 124:0.40144 125:0.503974 126:0.400928 127:0.789451 128:0.537105 
-36.14005003437453 -0 -0 128 0 0 0 0 0 0 0 0 0 121.3441853932068 0 44.34668864149067 0 0 0 0 0 0 1:0.472124 2:0.693745 3:0.715409 4:0.483695 5:0.367361 6:0.11859 7:0.568489 8:0.219197 9:0.325668 10:0.433823 11:0.672176 12:0.266728 13:0.444883 14:0.882521 15:0.492467 16:0.659875 17:0.739969 18:0.570548 19:0.493292 20:0.36086 21:0.600374 22:0.757093 23:0.269555 24:0.535898 25:0.405326 26:0.557486 27:0.454446 28:0.694161 29:0.870338 30:0.883151 31:0.167488 32:0.56726 33:0.652744 34:0.463362 35:0.699441 36:0.385163 37:0.72222 38:0.592572 39:0.664341 40:0.5191 41:0.230598 42:0.68117 43:0.738058 44:0.550828 45:0.693663 46:0.8068 47:0.805017 48:0.240747 49:0.209233 50:0.264017 51:0.48133 52:0.703263 53:0.500252 54:0.816902 55:0.475369 56:0.534042 57:0.583666 58:0.532102 59:0.477687 60:0.581955 61:0.807282 62:0.536654 63:0.436381 64:0.737221 65:0.455622 66:0.509438 67:0.463328 68:0.305996 69:0.599182 70:0.470079 71:0.578919 72:0.133305 73:0.61009 74:0.440675 75:0.608861 76:0.452209 77:0.441525 78:0.502511 79:0.456135 80:0.274067 81:0.617589 82:0.880529 83:0.338307 84:0.495404 85:0.66936 86:0.44201 87:0.25303 88:0.203057 89:0.269644 90:0.720884 91:0.558817 92:0.389606 93:0.480733 94:0.439386 95:0.537811 96:0.527328 97:0.508493 98:0.765022 99:0.736716 100:0.605582 101:0.410178 102:0.745893 103:0.752097 104:0.673379 105:0.393456 106:0.453689 107:0.600363 108:0.599115 109:0.657666 110:0.345193 111:0.554901 112:0.259665 113:0.309285 114:0.547784 115:0.483663 116:0.585769 117:0.54687 118:0.193966 119:0.339171 120:0.250069 121:0.439009 122:0.636666 123:0.42484 124:0.409124 125:0.550383 126:0.531649 127:0.613767 128:0.353723 
-0 -0 -0 0 0 0 0 0 65.48246698615498 0 0 0 0 0 0 0 0 0 0 0 0 0 1:0.328012 2:0.45919 3:0.635444 4:0.552546 5:0.373259 6:0.0799402 7:0.415757 8:0.192063 9:0.561437 10:0.374362 11:0.590366 12:0.406458 13:0.424527 14:0.812013 15:0.471642 16:0.468705 17:0.695828 18:0.35944 19:0.589399 20:0.49044 21:0.507617 22:0.664196 23:0.130552 24:0.590159 25:0.457305 26:0.62057 27:0.428942 28:0.564876 29:0.404083 30:0.775134 31:0.345207 32:0.25573 33:0.684437 34:0.279638 35:0.797172 36:0.563971 37:0.744064 38:0.540544 39:0.594527 40:0.443446 41:0.33763 42:0.78494 43:0.621689 44:0.523031 45:0.771908 46:0.719528 47:0.609113 48:0.297099 49:0.588786 50:0.261632 51:0.340614 52:0.449919 53:0.707437 54:0.719635 55:0.587397 56:0.513724 57:0.342344 58:0.502859 59:0.439228 60:0.527203 61:0.860444 62:0.561054 63:0.356663 64:0.756807 65:0.445456 66:0.461641 67:0.622073 68:0.456842 69:0.727452 70:0.158034 71:0.759166 72:0.184689 73:0.713836 74:0.207356 75:0.624382 76:0.697955 77:0.236608 78:0.478261 79:0.60168 80:0.534985 81:0.505339 82:0.7898 83:0.433775 84:0.62361 85:0.659409 86:0.408926 87:0.442068 88:0.373156 89:0.306376 90:0.430243 91:0.299286 92:0.481954 93:0.866572 94:0.544771 95:0.252366 96:0.370463 97:0.524559 98:0.457859 99:0.611348 100:0.505574 101:0.476542 102:0.678985 103:0.577625 104:0.25024 105:0.41473 106:0.444637 107:0.69538 108:0.450598 109:0.389115 110:0.699802 111:0.61277 112:0.0683521 113:0.40956 114:0.517156 115:0.241061 116:0.733079 117:0.236889 118:0.366823 119:0.0349612 120:0.105199 121:0.256756 122:0.635099 123:0.256692 124:0.359057 125:0.546486 126:0.669449 127:0.391814 128:0.466888 
-0 -0 -4.909955935486372 29.54472335413823 0 34.36599741835325 11.4564199495825 4.019320798176357 0 0 2.723992921039986 54.37265399562447 0 0 0 0 62.46977528108132 0 84.8661872359356 4.902101735909993 0 0 1:0.318776 2:0.561145 3:0.564417 4:0.629596 5:0.413616 6:0.3079 7:0.181742 8:0.117024 9:0.601155 10:0.195039 11:0.607779 12:0.393648 13:0.303555 14:0.522563 15:0.45693 16:0.565425 17:0.495475 18:0.226558 19:0.590416 20:0.411152 21:0.588207 22:0.660786 23:0.21263 24:0.581828 25:0.747258 26:0.598598 27:0.497625 28:0.32268 29:0.406488 30:0.767339 31:0.611225 32:0.354141 33:0.590416 34:0.404226 35:0.700882 36:0.646099 37:0.64889 38:0.35821 39:0.759673 40:0.52451 41:0.522406 42:0.483169 43:0.603161 44:0.604246 45:0.858812 46:0.73164 47:0.80567 48:0.29941 49:0.442606 50:0.253294 51:0.315734 52:0.538344 53:0.844668 54:0.561847 55:0.47639 56:0.521411 57:0.392646 58:0.486504 59:0.422891 60:0.49871 61:0.75236 62:0.597875 63:0.468119 64:0.698152 65:0.397244 66:0.400356 67:0.70702 68:0.431373 69:0.751851 70:0.248963 71:0.543426 72:0.282552 73:0.394196 74:0.190998 75:0.729383 76:0.584436 77:0.15834 78:0.505215 79:0.391775 80:0.840877 81:0.494849 82:0.812308 83:0.508055 84:0.670477 85:0.544145 86:0.618921 87:0.477024 88:0.276841 89:0.106316 90:0.353336 91:0.403733 92:0.511548 93:0.661465 94:0.659298 95:0.202609 96:0.459389 97:0.450371 98:0.513904 99:0.618504 100:0.392142 101:0.37687 102:0.502078 103:0.44906 104:0.435175 105:0.46385 106:0.472603 107:0.633762 108:0.683161 109:0.318914 110:0.713808 111:0.597208 112:0.144381 113:0.251516 114:0.39413 115:0.296343 116:0.736871 117:0.0840346 118:0.337741 119:0.256788 120:0.303028 121:0.472768 122:0.718847 123:0.272749 124:0.386872 125:0.537666 126:0.618869 127:0.445105 128:0.582348 
-0 -0 -0 15.6443254251548 0 5.717020299645729 0 0 86.34888350297405 0 0 0 0 0 0 0 0 0 0 0 21.63113506691841 0 1:0.3534 2:0.528439 3:0.551734 4:0.366811 5:0.629231 6:0.152161 7:0.367364 8:0.248711 9:0.677032 10:0.201889 11:0.441652 12:0.359686 13:0.33896 14:0.658239 15:0.467932 16:0.63446 17:0.512026 18:0.344685 19:0.503008 20:0.34294 21:0.660123 22:0.825285 23:0.45587 24:0.343339 25:0.588382 26:0.548237 27:0.531665 28:0.526275 29:0.658965 30:0.831687 31:0.464431 32:0.417304 33:0.820215 34:0.386553 35:0.788246 36:0.328403 37:0.771436 38:0.483891 39:0.741515 40:0.443556 41:0.467233 42:0.61084 43:0.739377 44:0.653572 45:0.630903 46:0.7041 47:0.604663 48:0.328702 49:0.571914 50:0.347313 51:0.232669 52:0.604776 53:0.755319 54:0.736869 55:0.410323 56:0.390046 57:0.625266 58:0.405249 59:0.220503 60:0.507348 61:0.760548 62:0.476792 63:0.448739 64:0.846665 65:0.346884 66:0.385346 67:0.438097 68:0.471382 69:0.759931 70:0.285388 71:0.550004 72:0.196861 73:0.419183 74:0.247195 75:0.607468 76:0.607992 77:0.260947 78:0.339692 79:0.403421 80:0.599328 81:0.604734 82:0.868609 83:0.580395 84:0.870673 85:0.790136 86:0.434944 87:0.388919 88:0.471517 89:0.2635 90:0.49572 91:0.527789 92:0.523589 93:0.422655 94:0.545194 95:0.389866 96:0.413293 97:0.331644 98:0.802978 99:0.533651 100:0.473332 101:0.523355 102:0.477365 103:0.726618 104:0.473088 105:0.461147 106:0.312084 107:0.603073 108:0.652145 109:0.560654 110:0.615026 111:0.632122 112:0.0794009 113:0.19411 114:0.582776 115:0.340601 116:0.723485 117:0.429298 118:0.380159 119:0.28372 120:0.373235 121:0.567809 122:0.801312 123:0.363285 124:0.328337 125:0.446466 126:0.360727 127:0.551227 128:0.663843 
-0 -0 -0 0 0 0 17.54616011783575 13.47669389098661 0 0 0 45.09405422623338 0 0 0 0 0 0 0 0 0 0 1:0.344542 2:0.548856 3:0.61106 4:0.359685 5:0.514144 6:0.156349 7:0.4211 8:0.28491 9:0.35695 10:0.197174 11:0.406333 12:0.360227 13:0.257416 14:0.768344 15:0.51142 16:0.653689 17:0.653243 18:0.30767 19:0.709584 20:0.286586 21:0.58568 22:0.835254 23:0.499831 24:0.466044 25:0.605591 26:0.582599 27:0.66366 28:0.544739 29:0.759659 30:0.780633 31:0.406374 32:0.212375 33:0.735735 34:0.259046 35:0.705535 36:0.293535 37:0.62739 38:0.489641 39:0.665149 40:0.637572 41:0.324202 42:0.791952 43:0.741308 44:0.691028 45:0.674356 46:0.784275 47:0.772957 48:0.0784728 49:0.404161 50:0.30926 51:0.333531 52:0.504399 53:0.71025 54:0.635763 55:0.358666 56:0.542445 57:0.603087 58:0.714994 59:0.360661 60:0.624337 61:0.789025 62:0.575677 63:0.515452 64:0.726006 65:0.574236 66:0.369152 67:0.440057 68:0.251568 69:0.639766 70:0.321519 71:0.559226 72:0.278393 73:0.46992 74:0.33229 75:0.621124 76:0.588407 77:0.348894 78:0.392732 79:0.438134 80:0.516167 81:0.544256 82:0.754373 83:0.513295 84:0.727493 85:0.663406 86:0.284685 87:0.316455 88:0.258475 89:0.157675 90:0.378775 91:0.441745 92:0.579047 93:0.448064 94:0.51084 95:0.684532 96:0.56113 97:0.54635 98:0.82301 99:0.548537 100:0.675504 101:0.148371 102:0.555597 103:0.640604 104:0.543143 105:0.269842 106:0.3908 107:0.646101 108:0.546774 109:0.511988 110:0.43082 111:0.74171 112:0.122375 113:0.41296 114:0.544987 115:0.331771 116:0.779266 117:0.471171 118:0.394563 119:0.272083 120:0.365545 121:0.370329 122:0.666818 123:0.243383 124:0.215787 125:0.454594 126:0.535292 127:0.381711 128:0.478414 
-0 -0 -0 0 0 53.48017375444008 0 0 0 0 25.07475879914278 0 0 44.92946899395604 0 0 0 42.08904433443963 0 0 0 0 1:0.717441 2:0.532856 3:0.621637 4:0.646851 5:0.403283 6:0.278953 7:0.280292 8:0.253796 9:0.527213 10:0.459905 11:0.788624 12:0.119906 13:0.421941 14:0.614517 15:0.560192 16:0.824747 17:0.813498 18:0.389834 19:0.487605 20:0.462735 21:0.6702 22:0.73638 23:0.378909 24:0.70603 25:0.614374 26:0.479094 27:0.535386 28:0.47025 29:0.715516 30:0.752652 31:0.433753 32:0.404566 33:0.471291 34:0.447882 35:0.709362 36:0.60446 37:0.59035 38:0.454677 39:0.709181 40:0.454592 41:0.109092 42:0.557983 43:0.403972 44:0.490502 45:0.990926 46:0.788718 47:0.498704 48:0.578953 49:0.460734 50:0.3394 51:0.533443 52:0.78 53:0.673734 54:0.465622 55:0.398684 56:0.238029 57:0.598643 58:0.338497 59:0.618847 60:0.526156 61:0.828196 62:0.519829 63:0.337628 64:0.714267 65:0.220505 66:0.324131 67:0.57766 68:0.612715 69:0.754387 70:0.398081 71:0.529937 72:0.311712 73:0.348404 74:0.138728 75:0.495381 76:0.378687 77:0.417272 78:0.720471 79:0.478481 80:0.760916 81:0.743021 82:0.749901 83:0.357053 84:0.438961 85:0.773013 86:0.504928 87:0.228983 88:0.308121 89:0.243052 90:0.580072 91:0.43606 92:0.700288 93:0.454459 94:0.862127 95:0.281772 96:0.527243 97:0.532851 98:0.468184 99:0.601498 100:0.318125 101:0.815007 102:0.638518 103:0.375851 104:0.415749 105:0.549242 106:0.336774 107:0.700536 108:0.444437 109:0.701414 110:0.666061 111:0.517315 112:0.405144 113:0.430132 114:0.517871 115:0.533685 116:0.817738 117:0.159182 118:0.40295 119:0.0660812 120:0.280385 121:0.236561 122:0.684761 123:0.49363 124:0.51557 125:0.577789 126:0.581133 127:0.610656 128:0.372004 
-0 -21.9984660480694 -0 0 0 0 23.59446400350364 0 0 0 0 0 28.87905542885952 0 7.103482289762078 0 0 0 0 0 0 0 1:0.492282 2:0.632441 3:0.484545 4:0.509639 5:0.494511 6:0.290506 7:0.200423 8:0.0285803 9:0.472645 10:0.169503 11:0.603593 12:0.318132 13:0.385037 14:0.758268 15:0.488602 16:0.623059 17:0.698646 18:0.361317 19:0.628615 20:0.458639 21:0.566158 22:0.772087 23:0.618601 24:0.688508 25:0.674489 26:0.468889 27:0.678362 28:0.536466 29:0.728786 30:0.893327 31:0.533959 32:0.271018 33:0.748223 34:0.310786 35:0.756349 36:0.557549 37:0.578269 38:0.46091 39:0.606101 40:0.503081 41:0.197144 42:0.636156 43:0.643091 44:0.70672 45:0.637351 46:0.768153 47:0.810306 48:0.483433 49:0.405938 50:0.428791 51:0.355648 52:0.609373 53:0.84869 54:0.467422 55:0.40546 56:0.501428 57:0.474844 58:0.713733 59:0.47827 60:0.507479 61:0.587947 62:0.670323 63:0.690515 64:0.65204 65:0.42108 66:0.43007 67:0.505724 68:0.283482 69:0.475255 70:0.386783 71:0.476331 72:0.20011 73:0.340182 74:0.249166 75:0.634214 76:0.449004 77:0.409807 78:0.346721 79:0.471902 80:0.725179 81:0.686582 82:0.706658 83:0.343752 84:0.533573 85:0.700957 86:0.339038 87:0.0960759 88:0.183186 89:0.170338 90:0.628222 91:0.560587 92:0.510995 93:0.527732 94:0.68423 95:0.580644 96:0.486321 97:0.383652 98:0.838256 99:0.644348 100:0.407436 101:0.448853 102:0.649578 103:0.573052 104:0.458462 105:0.263122 106:0.553098 107:0.694707 108:0.503763 109:0.630048 110:0.554233 111:0.801309 112:0.30974 113:0.457293 114:0.618932 115:0.270566 116:0.812262 117:0.363749 118:0.4685 119:0.312292 120:0.51912 121:0.397756 122:0.500188 123:0.237519 124:0.276299 125:0.415945 126:0.645759 127:0.528615 128:0.447412 
-0 -0 -0 0 0 0 0 0 0 108.7970599372719 0 0 0 0 0 0 0 0 0 0 2.4822440179771 0 1:0.535882 2:0.444421 3:0.449096 4:0.757481 5:0.300178 6:0.0970703 7:0.303773 8:0.0753844 9:0.574702 10:0.243007 11:0.725391 12:0.469345 13:0.36503 14:0.781271 15:0.468877 16:0.528648 17:0.677524 18:0.159583 19:0.741384 20:0.526102 21:0.471892 22:0.668362 23:0.321113 24:0.61772 25:0.658118 26:0.640155 27:0.616889 28:0.398783 29:0.330111 30:0.886782 31:0.410651 32:0.422818 33:0.755694 34:0.393439 35:0.556447 36:0.664709 37:0.719206 38:0.513945 39:0.666497 40:0.559778 41:0.339753 42:0.582482 43:0.528493 44:0.534612 45:0.702459 46:0.783065 47:0.716435 48:0.17515 49:0.663479 50:0.309452 51:0.445964 52:0.623689 53:0.790485 54:0.716338 55:0.613775 56:0.480084 57:0.425946 58:0.49884 59:0.461366 60:0.635502 61:0.752612 62:0.421983 63:0.441461 64:0.631079 65:0.435986 66:0.35453 67:0.743174 68:0.404855 69:0.760069 70:0.27965 71:0.545257 72:0.266216 73:0.401541 74:0.302518 75:0.716216 76:0.572377 77:0.410505 78:0.495545 79:0.368776 80:0.79936 81:0.509328 82:0.689471 83:0.447059 84:0.529621 85:0.66383 86:0.447517 87:0.403906 88:0.198052 89:0.145311 90:0.319865 91:0.280749 92:0.484045 93:0.749437 94:0.658607 95:0.268762 96:0.39384 97:0.561709 98:0.423736 99:0.893057 100:0.391428 101:0.331415 102:0.641102 103:0.604613 104:0.46948 105:0.402446 106:0.411625 107:0.666985 108:0.600949 109:0.387638 110:0.672312 111:0.519432 112:0.169932 113:0.349527 114:0.403806 115:0.267389 116:0.743731 117:0.381577 118:0.24799 119:0.218532 120:0.337925 121:0.379591 122:0.729837 123:0.290906 124:0.463726 125:0.598893 126:0.631083 127:0.562265 128:0.636784 
-0 -0 -0 0 0 18.95763072252687 0 0 0 0 0 0 0 0 0 0 0 0 2.709796461344619 0 0 0 1:0.625678 2:0.3501 3:0.460494 4:0.329304 5:0.677728 6:0.277131 7:0.158856 8:0.419288 9:0.220491 10:0.379003 11:0.595298 12:0.306925 13:0.521768 14:0.998738 15:0.74315 16:0.603426 17:0.985261 18:0.335983 19:0.774649 20:0.514252 21:0.468529 22:0.800778 23:0.817583 24:0.365384 25:0.594864 26:0.531511 27:0.689035 28:0.799182 29:0.547231 30:0.559012 31:0.452253 32:0.280325 33:0.843991 34:0.403315 35:0.593214 36:0.647193 37:0.714163 38:0.465779 39:0.777869 40:0.478187 41:0.2805 42:0.83293 43:0.684114 44:0.450361 45:0.399505 46:0.575573 47:0.44045 48:0.462205 49:0.644887 50:0.511021 51:0.329096 52:0.558537 53:0.603349 54:0.822653 55:0.308163 56:0.274028 57:0.605973 58:0.483281 59:0.383392 60:0.581373 61:0.602319 62:0.65122 63:0.412361 64:0.593878 65:0.344866 66:0.579903 67:0.44704 68:0.654742 69:0.650947 70:0.312245 71:0.60896 72:0.318849 73:0.521654 74:0.291201 75:0.597125 76:0.50875 77:0.508472 78:0.283617 79:0.571411 80:0.543973 81:0.565393 82:0.642824 83:0.675033 84:0.668209 85:0.7903 86:0.355743 87:0.263433 88:0.491308 89:0.446747 90:0.499078 91:0.551248 92:0.599313 93:0.574288 94:0.8789 95:0.593865 96:0.306123 97:0.422141 98:0.852684 99:0.192341 100:0.413447 101:0.371667 102:0.610372 103:0.670803 104:0.377006 105:0.452342 106:0.607952 107:0.703339 108:0.348269 109:0.666297 110:0.521028 111:0.541995 112:0.203779 113:0.63698 114:0.851234 115:0.352547 116:0.539761 117:0.581131 118:0.473216 119:0.242957 120:0.407606 121:0.410534 122:0.421033 123:0.423733 124:0.304975 125:0.4791 126:0.372051 127:0.618964 128:0.699879 
